digraph Tree {
node [shape=box, style="filled, rounded", color="black", fontname="helvetica"] ;
edge [fontname="helvetica"] ;
0 [label=<Salto &le; 130.5<br/>gini = 0.341<br/>samples = 2793<br/>value = [2183, 610]<br/>class = No Salta>, fillcolor="#eca470"] ;
1 [label=<Salto &le; 101.0<br/>gini = 0.333<br/>samples = 303<br/>value = [64, 239]<br/>class = Salta>, fillcolor="#6eb7ec"] ;
0 -> 1 [labeldistance=2.5, labelangle=45, headlabel="True"] ;
2 [label=<Distancia &le; -4.5<br/>gini = 0.18<br/>samples = 210<br/>value = [21, 189]<br/>class = Salta>, fillcolor="#4fa8e8"] ;
1 -> 2 ;
3 [label=<Distancia &le; -6.5<br/>gini = 0.299<br/>samples = 93<br/>value = [17, 76]<br/>class = Salta>, fillcolor="#65b3eb"] ;
2 -> 3 ;
4 [label=<gini = 0.0<br/>samples = 33<br/>value = [0, 33]<br/>class = Salta>, fillcolor="#399de5"] ;
3 -> 4 ;
5 [label=<Salto &le; 41.5<br/>gini = 0.406<br/>samples = 60<br/>value = [17, 43]<br/>class = Salta>, fillcolor="#87c4ef"] ;
3 -> 5 ;
6 [label=<Salto &le; 36.0<br/>gini = 0.1<br/>samples = 19<br/>value = [1, 18]<br/>class = Salta>, fillcolor="#44a2e6"] ;
5 -> 6 ;
7 [label=<gini = 0.0<br/>samples = 14<br/>value = [0, 14]<br/>class = Salta>, fillcolor="#399de5"] ;
6 -> 7 ;
8 [label=<Salto &le; 38.5<br/>gini = 0.32<br/>samples = 5<br/>value = [1, 4]<br/>class = Salta>, fillcolor="#6ab6ec"] ;
6 -> 8 ;
9 [label=<gini = 0.5<br/>samples = 2<br/>value = [1, 1]<br/>class = No Salta>, fillcolor="#ffffff"] ;
8 -> 9 ;
10 [label=<gini = 0.0<br/>samples = 3<br/>value = [0, 3]<br/>class = Salta>, fillcolor="#399de5"] ;
8 -> 10 ;
11 [label=<Distancia &le; -5.5<br/>gini = 0.476<br/>samples = 41<br/>value = [16, 25]<br/>class = Salta>, fillcolor="#b8dcf6"] ;
5 -> 11 ;
12 [label=<Salto &le; 94.5<br/>gini = 0.499<br/>samples = 23<br/>value = [11, 12]<br/>class = Salta>, fillcolor="#eff7fd"] ;
11 -> 12 ;
13 [label=<Salto &le; 91.5<br/>gini = 0.49<br/>samples = 21<br/>value = [9, 12]<br/>class = Salta>, fillcolor="#cee6f8"] ;
12 -> 13 ;
14 [label=<Salto &le; 45.5<br/>gini = 0.499<br/>samples = 19<br/>value = [9, 10]<br/>class = Salta>, fillcolor="#ebf5fc"] ;
13 -> 14 ;
15 [label=<gini = 0.0<br/>samples = 1<br/>value = [1, 0]<br/>class = No Salta>, fillcolor="#e58139"] ;
14 -> 15 ;
16 [label=<Salto &le; 88.5<br/>gini = 0.494<br/>samples = 18<br/>value = [8, 10]<br/>class = Salta>, fillcolor="#d7ebfa"] ;
14 -> 16 ;
17 [label=<Salto &le; 48.5<br/>gini = 0.484<br/>samples = 17<br/>value = [7, 10]<br/>class = Salta>, fillcolor="#c4e2f7"] ;
16 -> 17 ;
18 [label=<gini = 0.0<br/>samples = 1<br/>value = [0, 1]<br/>class = Salta>, fillcolor="#399de5"] ;
17 -> 18 ;
19 [label=<Salto &le; 50.0<br/>gini = 0.492<br/>samples = 16<br/>value = [7, 9]<br/>class = Salta>, fillcolor="#d3e9f9"] ;
17 -> 19 ;
20 [label=<gini = 0.0<br/>samples = 1<br/>value = [1, 0]<br/>class = No Salta>, fillcolor="#e58139"] ;
19 -> 20 ;
21 [label=<Salto &le; 53.0<br/>gini = 0.48<br/>samples = 15<br/>value = [6, 9]<br/>class = Salta>, fillcolor="#bddef6"] ;
19 -> 21 ;
22 [label=<gini = 0.0<br/>samples = 1<br/>value = [0, 1]<br/>class = Salta>, fillcolor="#399de5"] ;
21 -> 22 ;
23 [label=<Salto &le; 57.0<br/>gini = 0.49<br/>samples = 14<br/>value = [6, 8]<br/>class = Salta>, fillcolor="#cee6f8"] ;
21 -> 23 ;
24 [label=<gini = 0.0<br/>samples = 1<br/>value = [1, 0]<br/>class = No Salta>, fillcolor="#e58139"] ;
23 -> 24 ;
25 [label=<Salto &le; 60.0<br/>gini = 0.473<br/>samples = 13<br/>value = [5, 8]<br/>class = Salta>, fillcolor="#b5daf5"] ;
23 -> 25 ;
26 [label=<gini = 0.0<br/>samples = 1<br/>value = [0, 1]<br/>class = Salta>, fillcolor="#399de5"] ;
25 -> 26 ;
27 [label=<Salto &le; 61.5<br/>gini = 0.486<br/>samples = 12<br/>value = [5, 7]<br/>class = Salta>, fillcolor="#c6e3f8"] ;
25 -> 27 ;
28 [label=<gini = 0.0<br/>samples = 1<br/>value = [1, 0]<br/>class = No Salta>, fillcolor="#e58139"] ;
27 -> 28 ;
29 [label=<Salto &le; 64.5<br/>gini = 0.463<br/>samples = 11<br/>value = [4, 7]<br/>class = Salta>, fillcolor="#aad5f4"] ;
27 -> 29 ;
30 [label=<gini = 0.0<br/>samples = 1<br/>value = [0, 1]<br/>class = Salta>, fillcolor="#399de5"] ;
29 -> 30 ;
31 [label=<Salto &le; 67.5<br/>gini = 0.48<br/>samples = 10<br/>value = [4, 6]<br/>class = Salta>, fillcolor="#bddef6"] ;
29 -> 31 ;
32 [label=<gini = 0.0<br/>samples = 1<br/>value = [1, 0]<br/>class = No Salta>, fillcolor="#e58139"] ;
31 -> 32 ;
33 [label=<Salto &le; 71.5<br/>gini = 0.444<br/>samples = 9<br/>value = [3, 6]<br/>class = Salta>, fillcolor="#9ccef2"] ;
31 -> 33 ;
34 [label=<gini = 0.0<br/>samples = 2<br/>value = [0, 2]<br/>class = Salta>, fillcolor="#399de5"] ;
33 -> 34 ;
35 [label=<Salto &le; 73.5<br/>gini = 0.49<br/>samples = 7<br/>value = [3, 4]<br/>class = Salta>, fillcolor="#cee6f8"] ;
33 -> 35 ;
36 [label=<gini = 0.0<br/>samples = 1<br/>value = [1, 0]<br/>class = No Salta>, fillcolor="#e58139"] ;
35 -> 36 ;
37 [label=<Salto &le; 76.5<br/>gini = 0.444<br/>samples = 6<br/>value = [2, 4]<br/>class = Salta>, fillcolor="#9ccef2"] ;
35 -> 37 ;
38 [label=<gini = 0.0<br/>samples = 1<br/>value = [0, 1]<br/>class = Salta>, fillcolor="#399de5"] ;
37 -> 38 ;
39 [label=<Salto &le; 79.5<br/>gini = 0.48<br/>samples = 5<br/>value = [2, 3]<br/>class = Salta>, fillcolor="#bddef6"] ;
37 -> 39 ;
40 [label=<gini = 0.0<br/>samples = 1<br/>value = [1, 0]<br/>class = No Salta>, fillcolor="#e58139"] ;
39 -> 40 ;
41 [label=<Salto &le; 83.0<br/>gini = 0.375<br/>samples = 4<br/>value = [1, 3]<br/>class = Salta>, fillcolor="#7bbeee"] ;
39 -> 41 ;
42 [label=<gini = 0.0<br/>samples = 2<br/>value = [0, 2]<br/>class = Salta>, fillcolor="#399de5"] ;
41 -> 42 ;
43 [label=<Salto &le; 85.5<br/>gini = 0.5<br/>samples = 2<br/>value = [1, 1]<br/>class = No Salta>, fillcolor="#ffffff"] ;
41 -> 43 ;
44 [label=<gini = 0.0<br/>samples = 1<br/>value = [1, 0]<br/>class = No Salta>, fillcolor="#e58139"] ;
43 -> 44 ;
45 [label=<gini = 0.0<br/>samples = 1<br/>value = [0, 1]<br/>class = Salta>, fillcolor="#399de5"] ;
43 -> 45 ;
46 [label=<gini = 0.0<br/>samples = 1<br/>value = [1, 0]<br/>class = No Salta>, fillcolor="#e58139"] ;
16 -> 46 ;
47 [label=<gini = 0.0<br/>samples = 2<br/>value = [0, 2]<br/>class = Salta>, fillcolor="#399de5"] ;
13 -> 47 ;
48 [label=<gini = 0.0<br/>samples = 2<br/>value = [2, 0]<br/>class = No Salta>, fillcolor="#e58139"] ;
12 -> 48 ;
49 [label=<Salto &le; 52.5<br/>gini = 0.401<br/>samples = 18<br/>value = [5, 13]<br/>class = Salta>, fillcolor="#85c3ef"] ;
11 -> 49 ;
50 [label=<gini = 0.0<br/>samples = 3<br/>value = [0, 3]<br/>class = Salta>, fillcolor="#399de5"] ;
49 -> 50 ;
51 [label=<Salto &le; 57.5<br/>gini = 0.444<br/>samples = 15<br/>value = [5, 10]<br/>class = Salta>, fillcolor="#9ccef2"] ;
49 -> 51 ;
52 [label=<gini = 0.0<br/>samples = 1<br/>value = [1, 0]<br/>class = No Salta>, fillcolor="#e58139"] ;
51 -> 52 ;
53 [label=<Salto &le; 62.5<br/>gini = 0.408<br/>samples = 14<br/>value = [4, 10]<br/>class = Salta>, fillcolor="#88c4ef"] ;
51 -> 53 ;
54 [label=<gini = 0.0<br/>samples = 2<br/>value = [0, 2]<br/>class = Salta>, fillcolor="#399de5"] ;
53 -> 54 ;
55 [label=<Salto &le; 67.5<br/>gini = 0.444<br/>samples = 12<br/>value = [4, 8]<br/>class = Salta>, fillcolor="#9ccef2"] ;
53 -> 55 ;
56 [label=<gini = 0.0<br/>samples = 1<br/>value = [1, 0]<br/>class = No Salta>, fillcolor="#e58139"] ;
55 -> 56 ;
57 [label=<Salto &le; 72.5<br/>gini = 0.397<br/>samples = 11<br/>value = [3, 8]<br/>class = Salta>, fillcolor="#83c2ef"] ;
55 -> 57 ;
58 [label=<gini = 0.0<br/>samples = 2<br/>value = [0, 2]<br/>class = Salta>, fillcolor="#399de5"] ;
57 -> 58 ;
59 [label=<Salto &le; 77.5<br/>gini = 0.444<br/>samples = 9<br/>value = [3, 6]<br/>class = Salta>, fillcolor="#9ccef2"] ;
57 -> 59 ;
60 [label=<gini = 0.0<br/>samples = 1<br/>value = [1, 0]<br/>class = No Salta>, fillcolor="#e58139"] ;
59 -> 60 ;
61 [label=<Salto &le; 82.5<br/>gini = 0.375<br/>samples = 8<br/>value = [2, 6]<br/>class = Salta>, fillcolor="#7bbeee"] ;
59 -> 61 ;
62 [label=<gini = 0.0<br/>samples = 2<br/>value = [0, 2]<br/>class = Salta>, fillcolor="#399de5"] ;
61 -> 62 ;
63 [label=<Salto &le; 87.5<br/>gini = 0.444<br/>samples = 6<br/>value = [2, 4]<br/>class = Salta>, fillcolor="#9ccef2"] ;
61 -> 63 ;
64 [label=<gini = 0.0<br/>samples = 1<br/>value = [1, 0]<br/>class = No Salta>, fillcolor="#e58139"] ;
63 -> 64 ;
65 [label=<Salto &le; 92.5<br/>gini = 0.32<br/>samples = 5<br/>value = [1, 4]<br/>class = Salta>, fillcolor="#6ab6ec"] ;
63 -> 65 ;
66 [label=<gini = 0.0<br/>samples = 2<br/>value = [0, 2]<br/>class = Salta>, fillcolor="#399de5"] ;
65 -> 66 ;
67 [label=<Salto &le; 97.5<br/>gini = 0.444<br/>samples = 3<br/>value = [1, 2]<br/>class = Salta>, fillcolor="#9ccef2"] ;
65 -> 67 ;
68 [label=<gini = 0.0<br/>samples = 1<br/>value = [1, 0]<br/>class = No Salta>, fillcolor="#e58139"] ;
67 -> 68 ;
69 [label=<gini = 0.0<br/>samples = 2<br/>value = [0, 2]<br/>class = Salta>, fillcolor="#399de5"] ;
67 -> 69 ;
70 [label=<Salto &le; 69.5<br/>gini = 0.066<br/>samples = 117<br/>value = [4, 113]<br/>class = Salta>, fillcolor="#40a0e6"] ;
2 -> 70 ;
71 [label=<gini = 0.0<br/>samples = 81<br/>value = [0, 81]<br/>class = Salta>, fillcolor="#399de5"] ;
70 -> 71 ;
72 [label=<Salto &le; 70.5<br/>gini = 0.198<br/>samples = 36<br/>value = [4, 32]<br/>class = Salta>, fillcolor="#52a9e8"] ;
70 -> 72 ;
73 [label=<gini = 0.0<br/>samples = 1<br/>value = [1, 0]<br/>class = No Salta>, fillcolor="#e58139"] ;
72 -> 73 ;
74 [label=<Distancia &le; -3.5<br/>gini = 0.157<br/>samples = 35<br/>value = [3, 32]<br/>class = Salta>, fillcolor="#4ca6e7"] ;
72 -> 74 ;
75 [label=<gini = 0.0<br/>samples = 20<br/>value = [0, 20]<br/>class = Salta>, fillcolor="#399de5"] ;
74 -> 75 ;
76 [label=<Salto &le; 76.0<br/>gini = 0.32<br/>samples = 15<br/>value = [3, 12]<br/>class = Salta>, fillcolor="#6ab6ec"] ;
74 -> 76 ;
77 [label=<gini = 0.0<br/>samples = 3<br/>value = [0, 3]<br/>class = Salta>, fillcolor="#399de5"] ;
76 -> 77 ;
78 [label=<Salto &le; 78.5<br/>gini = 0.375<br/>samples = 12<br/>value = [3, 9]<br/>class = Salta>, fillcolor="#7bbeee"] ;
76 -> 78 ;
79 [label=<gini = 0.0<br/>samples = 1<br/>value = [1, 0]<br/>class = No Salta>, fillcolor="#e58139"] ;
78 -> 79 ;
80 [label=<Salto &le; 84.0<br/>gini = 0.298<br/>samples = 11<br/>value = [2, 9]<br/>class = Salta>, fillcolor="#65b3eb"] ;
78 -> 80 ;
81 [label=<gini = 0.0<br/>samples = 3<br/>value = [0, 3]<br/>class = Salta>, fillcolor="#399de5"] ;
80 -> 81 ;
82 [label=<Salto &le; 86.5<br/>gini = 0.375<br/>samples = 8<br/>value = [2, 6]<br/>class = Salta>, fillcolor="#7bbeee"] ;
80 -> 82 ;
83 [label=<gini = 0.0<br/>samples = 1<br/>value = [1, 0]<br/>class = No Salta>, fillcolor="#e58139"] ;
82 -> 83 ;
84 [label=<Salto &le; 92.0<br/>gini = 0.245<br/>samples = 7<br/>value = [1, 6]<br/>class = Salta>, fillcolor="#5aade9"] ;
82 -> 84 ;
85 [label=<gini = 0.0<br/>samples = 3<br/>value = [0, 3]<br/>class = Salta>, fillcolor="#399de5"] ;
84 -> 85 ;
86 [label=<Salto &le; 94.5<br/>gini = 0.375<br/>samples = 4<br/>value = [1, 3]<br/>class = Salta>, fillcolor="#7bbeee"] ;
84 -> 86 ;
87 [label=<gini = 0.0<br/>samples = 1<br/>value = [1, 0]<br/>class = No Salta>, fillcolor="#e58139"] ;
86 -> 87 ;
88 [label=<gini = 0.0<br/>samples = 3<br/>value = [0, 3]<br/>class = Salta>, fillcolor="#399de5"] ;
86 -> 88 ;
89 [label=<Distancia &le; -6.5<br/>gini = 0.497<br/>samples = 93<br/>value = [43, 50]<br/>class = Salta>, fillcolor="#e3f1fb"] ;
1 -> 89 ;
90 [label=<Salto &le; 125.0<br/>gini = 0.346<br/>samples = 9<br/>value = [2, 7]<br/>class = Salta>, fillcolor="#72b9ec"] ;
89 -> 90 ;
91 [label=<Salto &le; 116.0<br/>gini = 0.219<br/>samples = 8<br/>value = [1, 7]<br/>class = Salta>, fillcolor="#55abe9"] ;
90 -> 91 ;
92 [label=<gini = 0.0<br/>samples = 4<br/>value = [0, 4]<br/>class = Salta>, fillcolor="#399de5"] ;
91 -> 92 ;
93 [label=<Salto &le; 120.0<br/>gini = 0.375<br/>samples = 4<br/>value = [1, 3]<br/>class = Salta>, fillcolor="#7bbeee"] ;
91 -> 93 ;
94 [label=<gini = 0.0<br/>samples = 1<br/>value = [1, 0]<br/>class = No Salta>, fillcolor="#e58139"] ;
93 -> 94 ;
95 [label=<gini = 0.0<br/>samples = 3<br/>value = [0, 3]<br/>class = Salta>, fillcolor="#399de5"] ;
93 -> 95 ;
96 [label=<gini = 0.0<br/>samples = 1<br/>value = [1, 0]<br/>class = No Salta>, fillcolor="#e58139"] ;
90 -> 96 ;
97 [label=<Distancia &le; -5.5<br/>gini = 0.5<br/>samples = 84<br/>value = [41, 43]<br/>class = Salta>, fillcolor="#f6fafe"] ;
89 -> 97 ;
98 [label=<Salto &le; 103.5<br/>gini = 0.355<br/>samples = 13<br/>value = [10, 3]<br/>class = No Salta>, fillcolor="#eda774"] ;
97 -> 98 ;
99 [label=<gini = 0.5<br/>samples = 2<br/>value = [1, 1]<br/>class = No Salta>, fillcolor="#ffffff"] ;
98 -> 99 ;
100 [label=<Salto &le; 112.0<br/>gini = 0.298<br/>samples = 11<br/>value = [9, 2]<br/>class = No Salta>, fillcolor="#eb9d65"] ;
98 -> 100 ;
101 [label=<gini = 0.0<br/>samples = 3<br/>value = [3, 0]<br/>class = No Salta>, fillcolor="#e58139"] ;
100 -> 101 ;
102 [label=<Salto &le; 114.5<br/>gini = 0.375<br/>samples = 8<br/>value = [6, 2]<br/>class = No Salta>, fillcolor="#eeab7b"] ;
100 -> 102 ;
103 [label=<gini = 0.0<br/>samples = 1<br/>value = [0, 1]<br/>class = Salta>, fillcolor="#399de5"] ;
102 -> 103 ;
104 [label=<Salto &le; 123.5<br/>gini = 0.245<br/>samples = 7<br/>value = [6, 1]<br/>class = No Salta>, fillcolor="#e9965a"] ;
102 -> 104 ;
105 [label=<gini = 0.0<br/>samples = 4<br/>value = [4, 0]<br/>class = No Salta>, fillcolor="#e58139"] ;
104 -> 105 ;
106 [label=<Salto &le; 126.0<br/>gini = 0.444<br/>samples = 3<br/>value = [2, 1]<br/>class = No Salta>, fillcolor="#f2c09c"] ;
104 -> 106 ;
107 [label=<gini = 0.0<br/>samples = 1<br/>value = [0, 1]<br/>class = Salta>, fillcolor="#399de5"] ;
106 -> 107 ;
108 [label=<gini = 0.0<br/>samples = 2<br/>value = [2, 0]<br/>class = No Salta>, fillcolor="#e58139"] ;
106 -> 108 ;
109 [label=<Salto &le; 104.5<br/>gini = 0.492<br/>samples = 71<br/>value = [31.0, 40.0]<br/>class = Salta>, fillcolor="#d2e9f9"] ;
97 -> 109 ;
110 [label=<Distancia &le; -3.5<br/>gini = 0.32<br/>samples = 5<br/>value = [1, 4]<br/>class = Salta>, fillcolor="#6ab6ec"] ;
109 -> 110 ;
111 [label=<gini = 0.0<br/>samples = 3<br/>value = [0, 3]<br/>class = Salta>, fillcolor="#399de5"] ;
110 -> 111 ;
112 [label=<Salto &le; 102.5<br/>gini = 0.5<br/>samples = 2<br/>value = [1, 1]<br/>class = No Salta>, fillcolor="#ffffff"] ;
110 -> 112 ;
113 [label=<gini = 0.0<br/>samples = 1<br/>value = [1, 0]<br/>class = No Salta>, fillcolor="#e58139"] ;
112 -> 113 ;
114 [label=<gini = 0.0<br/>samples = 1<br/>value = [0, 1]<br/>class = Salta>, fillcolor="#399de5"] ;
112 -> 114 ;
115 [label=<Salto &le; 119.5<br/>gini = 0.496<br/>samples = 66<br/>value = [30, 36]<br/>class = Salta>, fillcolor="#deeffb"] ;
109 -> 115 ;
116 [label=<Distancia &le; -3.5<br/>gini = 0.499<br/>samples = 38<br/>value = [20, 18]<br/>class = No Salta>, fillcolor="#fcf2eb"] ;
115 -> 116 ;
117 [label=<Salto &le; 107.5<br/>gini = 0.48<br/>samples = 30<br/>value = [18, 12]<br/>class = No Salta>, fillcolor="#f6d5bd"] ;
116 -> 117 ;
118 [label=<Salto &le; 105.5<br/>gini = 0.32<br/>samples = 5<br/>value = [4, 1]<br/>class = No Salta>, fillcolor="#eca06a"] ;
117 -> 118 ;
119 [label=<Distancia &le; -4.5<br/>gini = 0.444<br/>samples = 3<br/>value = [2, 1]<br/>class = No Salta>, fillcolor="#f2c09c"] ;
118 -> 119 ;
120 [label=<gini = 0.0<br/>samples = 1<br/>value = [1, 0]<br/>class = No Salta>, fillcolor="#e58139"] ;
119 -> 120 ;
121 [label=<gini = 0.5<br/>samples = 2<br/>value = [1, 1]<br/>class = No Salta>, fillcolor="#ffffff"] ;
119 -> 121 ;
122 [label=<gini = 0.0<br/>samples = 2<br/>value = [2, 0]<br/>class = No Salta>, fillcolor="#e58139"] ;
118 -> 122 ;
123 [label=<Salto &le; 113.5<br/>gini = 0.493<br/>samples = 25<br/>value = [14.0, 11.0]<br/>class = No Salta>, fillcolor="#f9e4d5"] ;
117 -> 123 ;
124 [label=<Distancia &le; -4.5<br/>gini = 0.497<br/>samples = 13<br/>value = [6, 7]<br/>class = Salta>, fillcolor="#e3f1fb"] ;
123 -> 124 ;
125 [label=<gini = 0.0<br/>samples = 2<br/>value = [0, 2]<br/>class = Salta>, fillcolor="#399de5"] ;
124 -> 125 ;
126 [label=<Salto &le; 108.5<br/>gini = 0.496<br/>samples = 11<br/>value = [6, 5]<br/>class = No Salta>, fillcolor="#fbeade"] ;
124 -> 126 ;
127 [label=<gini = 0.444<br/>samples = 3<br/>value = [1, 2]<br/>class = Salta>, fillcolor="#9ccef2"] ;
126 -> 127 ;
128 [label=<Salto &le; 110.5<br/>gini = 0.469<br/>samples = 8<br/>value = [5, 3]<br/>class = No Salta>, fillcolor="#f5cdb0"] ;
126 -> 128 ;
129 [label=<gini = 0.0<br/>samples = 2<br/>value = [2, 0]<br/>class = No Salta>, fillcolor="#e58139"] ;
128 -> 129 ;
130 [label=<Salto &le; 111.5<br/>gini = 0.5<br/>samples = 6<br/>value = [3, 3]<br/>class = No Salta>, fillcolor="#ffffff"] ;
128 -> 130 ;
131 [label=<gini = 0.5<br/>samples = 2<br/>value = [1, 1]<br/>class = No Salta>, fillcolor="#ffffff"] ;
130 -> 131 ;
132 [label=<Salto &le; 112.5<br/>gini = 0.5<br/>samples = 4<br/>value = [2, 2]<br/>class = No Salta>, fillcolor="#ffffff"] ;
130 -> 132 ;
133 [label=<gini = 0.5<br/>samples = 2<br/>value = [1, 1]<br/>class = No Salta>, fillcolor="#ffffff"] ;
132 -> 133 ;
134 [label=<gini = 0.5<br/>samples = 2<br/>value = [1, 1]<br/>class = No Salta>, fillcolor="#ffffff"] ;
132 -> 134 ;
135 [label=<Salto &le; 116.5<br/>gini = 0.444<br/>samples = 12<br/>value = [8, 4]<br/>class = No Salta>, fillcolor="#f2c09c"] ;
123 -> 135 ;
136 [label=<Salto &le; 114.5<br/>gini = 0.278<br/>samples = 6<br/>value = [5, 1]<br/>class = No Salta>, fillcolor="#ea9a61"] ;
135 -> 136 ;
137 [label=<gini = 0.444<br/>samples = 3<br/>value = [2, 1]<br/>class = No Salta>, fillcolor="#f2c09c"] ;
136 -> 137 ;
138 [label=<gini = 0.0<br/>samples = 3<br/>value = [3, 0]<br/>class = No Salta>, fillcolor="#e58139"] ;
136 -> 138 ;
139 [label=<Salto &le; 118.5<br/>gini = 0.5<br/>samples = 6<br/>value = [3, 3]<br/>class = No Salta>, fillcolor="#ffffff"] ;
135 -> 139 ;
140 [label=<Salto &le; 117.5<br/>gini = 0.48<br/>samples = 5<br/>value = [2, 3]<br/>class = Salta>, fillcolor="#bddef6"] ;
139 -> 140 ;
141 [label=<gini = 0.444<br/>samples = 3<br/>value = [1, 2]<br/>class = Salta>, fillcolor="#9ccef2"] ;
140 -> 141 ;
142 [label=<gini = 0.5<br/>samples = 2<br/>value = [1, 1]<br/>class = No Salta>, fillcolor="#ffffff"] ;
140 -> 142 ;
143 [label=<gini = 0.0<br/>samples = 1<br/>value = [1, 0]<br/>class = No Salta>, fillcolor="#e58139"] ;
139 -> 143 ;
144 [label=<Salto &le; 108.0<br/>gini = 0.375<br/>samples = 8<br/>value = [2, 6]<br/>class = Salta>, fillcolor="#7bbeee"] ;
116 -> 144 ;
145 [label=<gini = 0.0<br/>samples = 2<br/>value = [0, 2]<br/>class = Salta>, fillcolor="#399de5"] ;
144 -> 145 ;
146 [label=<Salto &le; 110.5<br/>gini = 0.444<br/>samples = 6<br/>value = [2, 4]<br/>class = Salta>, fillcolor="#9ccef2"] ;
144 -> 146 ;
147 [label=<gini = 0.0<br/>samples = 1<br/>value = [1, 0]<br/>class = No Salta>, fillcolor="#e58139"] ;
146 -> 147 ;
148 [label=<Salto &le; 116.0<br/>gini = 0.32<br/>samples = 5<br/>value = [1, 4]<br/>class = Salta>, fillcolor="#6ab6ec"] ;
146 -> 148 ;
149 [label=<gini = 0.0<br/>samples = 3<br/>value = [0, 3]<br/>class = Salta>, fillcolor="#399de5"] ;
148 -> 149 ;
150 [label=<Salto &le; 118.5<br/>gini = 0.5<br/>samples = 2<br/>value = [1, 1]<br/>class = No Salta>, fillcolor="#ffffff"] ;
148 -> 150 ;
151 [label=<gini = 0.0<br/>samples = 1<br/>value = [1, 0]<br/>class = No Salta>, fillcolor="#e58139"] ;
150 -> 151 ;
152 [label=<gini = 0.0<br/>samples = 1<br/>value = [0, 1]<br/>class = Salta>, fillcolor="#399de5"] ;
150 -> 152 ;
153 [label=<Salto &le; 121.5<br/>gini = 0.459<br/>samples = 28<br/>value = [10, 18]<br/>class = Salta>, fillcolor="#a7d3f3"] ;
115 -> 153 ;
154 [label=<Salto &le; 120.5<br/>gini = 0.245<br/>samples = 7<br/>value = [1, 6]<br/>class = Salta>, fillcolor="#5aade9"] ;
153 -> 154 ;
155 [label=<Distancia &le; -4.5<br/>gini = 0.375<br/>samples = 4<br/>value = [1, 3]<br/>class = Salta>, fillcolor="#7bbeee"] ;
154 -> 155 ;
156 [label=<gini = 0.0<br/>samples = 2<br/>value = [0, 2]<br/>class = Salta>, fillcolor="#399de5"] ;
155 -> 156 ;
157 [label=<gini = 0.5<br/>samples = 2<br/>value = [1, 1]<br/>class = No Salta>, fillcolor="#ffffff"] ;
155 -> 157 ;
158 [label=<gini = 0.0<br/>samples = 3<br/>value = [0, 3]<br/>class = Salta>, fillcolor="#399de5"] ;
154 -> 158 ;
159 [label=<Distancia &le; -3.5<br/>gini = 0.49<br/>samples = 21<br/>value = [9, 12]<br/>class = Salta>, fillcolor="#cee6f8"] ;
153 -> 159 ;
160 [label=<Salto &le; 123.5<br/>gini = 0.444<br/>samples = 12<br/>value = [4, 8]<br/>class = Salta>, fillcolor="#9ccef2"] ;
159 -> 160 ;
161 [label=<Salto &le; 122.5<br/>gini = 0.444<br/>samples = 3<br/>value = [2, 1]<br/>class = No Salta>, fillcolor="#f2c09c"] ;
160 -> 161 ;
162 [label=<gini = 0.5<br/>samples = 2<br/>value = [1, 1]<br/>class = No Salta>, fillcolor="#ffffff"] ;
161 -> 162 ;
163 [label=<gini = 0.0<br/>samples = 1<br/>value = [1, 0]<br/>class = No Salta>, fillcolor="#e58139"] ;
161 -> 163 ;
164 [label=<Distancia &le; -4.5<br/>gini = 0.346<br/>samples = 9<br/>value = [2, 7]<br/>class = Salta>, fillcolor="#72b9ec"] ;
160 -> 164 ;
165 [label=<Salto &le; 127.5<br/>gini = 0.5<br/>samples = 4<br/>value = [2, 2]<br/>class = No Salta>, fillcolor="#ffffff"] ;
164 -> 165 ;
166 [label=<gini = 0.5<br/>samples = 2<br/>value = [1, 1]<br/>class = No Salta>, fillcolor="#ffffff"] ;
165 -> 166 ;
167 [label=<gini = 0.5<br/>samples = 2<br/>value = [1, 1]<br/>class = No Salta>, fillcolor="#ffffff"] ;
165 -> 167 ;
168 [label=<gini = 0.0<br/>samples = 5<br/>value = [0, 5]<br/>class = Salta>, fillcolor="#399de5"] ;
164 -> 168 ;
169 [label=<Salto &le; 123.0<br/>gini = 0.494<br/>samples = 9<br/>value = [5, 4]<br/>class = No Salta>, fillcolor="#fae6d7"] ;
159 -> 169 ;
170 [label=<gini = 0.0<br/>samples = 1<br/>value = [0, 1]<br/>class = Salta>, fillcolor="#399de5"] ;
169 -> 170 ;
171 [label=<Salto &le; 126.5<br/>gini = 0.469<br/>samples = 8<br/>value = [5, 3]<br/>class = No Salta>, fillcolor="#f5cdb0"] ;
169 -> 171 ;
172 [label=<gini = 0.0<br/>samples = 3<br/>value = [3, 0]<br/>class = No Salta>, fillcolor="#e58139"] ;
171 -> 172 ;
173 [label=<Salto &le; 127.5<br/>gini = 0.48<br/>samples = 5<br/>value = [2, 3]<br/>class = Salta>, fillcolor="#bddef6"] ;
171 -> 173 ;
174 [label=<gini = 0.0<br/>samples = 1<br/>value = [0, 1]<br/>class = Salta>, fillcolor="#399de5"] ;
173 -> 174 ;
175 [label=<Salto &le; 128.5<br/>gini = 0.5<br/>samples = 4<br/>value = [2, 2]<br/>class = No Salta>, fillcolor="#ffffff"] ;
173 -> 175 ;
176 [label=<gini = 0.0<br/>samples = 1<br/>value = [1, 0]<br/>class = No Salta>, fillcolor="#e58139"] ;
175 -> 176 ;
177 [label=<Salto &le; 129.5<br/>gini = 0.444<br/>samples = 3<br/>value = [1, 2]<br/>class = Salta>, fillcolor="#9ccef2"] ;
175 -> 177 ;
178 [label=<gini = 0.0<br/>samples = 1<br/>value = [0, 1]<br/>class = Salta>, fillcolor="#399de5"] ;
177 -> 178 ;
179 [label=<gini = 0.5<br/>samples = 2<br/>value = [1, 1]<br/>class = No Salta>, fillcolor="#ffffff"] ;
177 -> 179 ;
180 [label=<Distancia &le; -3.5<br/>gini = 0.254<br/>samples = 2490<br/>value = [2119, 371]<br/>class = No Salta>, fillcolor="#ea975c"] ;
0 -> 180 [labeldistance=2.5, labelangle=-45, headlabel="False"] ;
181 [label=<Distancia &le; -6.5<br/>gini = 0.106<br/>samples = 1738<br/>value = [1640, 98]<br/>class = No Salta>, fillcolor="#e78945"] ;
180 -> 181 ;
182 [label=<Distancia &le; -7.5<br/>gini = 0.325<br/>samples = 289<br/>value = [230, 59]<br/>class = No Salta>, fillcolor="#eca16c"] ;
181 -> 182 ;
183 [label=<Salto &le; 135.5<br/>gini = 0.029<br/>samples = 134<br/>value = [132, 2]<br/>class = No Salta>, fillcolor="#e5833c"] ;
182 -> 183 ;
184 [label=<gini = 0.0<br/>samples = 1<br/>value = [0, 1]<br/>class = Salta>, fillcolor="#399de5"] ;
183 -> 184 ;
185 [label=<Salto &le; 1084.5<br/>gini = 0.015<br/>samples = 133<br/>value = [132, 1]<br/>class = No Salta>, fillcolor="#e5823b"] ;
183 -> 185 ;
186 [label=<gini = 0.0<br/>samples = 120<br/>value = [120, 0]<br/>class = No Salta>, fillcolor="#e58139"] ;
185 -> 186 ;
187 [label=<Salto &le; 1088.5<br/>gini = 0.142<br/>samples = 13<br/>value = [12, 1]<br/>class = No Salta>, fillcolor="#e78c49"] ;
185 -> 187 ;
188 [label=<gini = 0.0<br/>samples = 1<br/>value = [0, 1]<br/>class = Salta>, fillcolor="#399de5"] ;
187 -> 188 ;
189 [label=<gini = 0.0<br/>samples = 12<br/>value = [12, 0]<br/>class = No Salta>, fillcolor="#e58139"] ;
187 -> 189 ;
190 [label=<Salto &le; 716.5<br/>gini = 0.465<br/>samples = 155<br/>value = [98.0, 57.0]<br/>class = No Salta>, fillcolor="#f4caac"] ;
182 -> 190 ;
191 [label=<Salto &le; 294.0<br/>gini = 0.379<br/>samples = 114<br/>value = [85, 29]<br/>class = No Salta>, fillcolor="#eeac7d"] ;
190 -> 191 ;
192 [label=<Salto &le; 132.0<br/>gini = 0.5<br/>samples = 28<br/>value = [14, 14]<br/>class = No Salta>, fillcolor="#ffffff"] ;
191 -> 192 ;
193 [label=<gini = 0.0<br/>samples = 1<br/>value = [1, 0]<br/>class = No Salta>, fillcolor="#e58139"] ;
192 -> 193 ;
194 [label=<Salto &le; 138.0<br/>gini = 0.499<br/>samples = 27<br/>value = [13, 14]<br/>class = Salta>, fillcolor="#f1f8fd"] ;
192 -> 194 ;
195 [label=<gini = 0.0<br/>samples = 1<br/>value = [0, 1]<br/>class = Salta>, fillcolor="#399de5"] ;
194 -> 195 ;
196 [label=<Salto &le; 144.0<br/>gini = 0.5<br/>samples = 26<br/>value = [13, 13]<br/>class = No Salta>, fillcolor="#ffffff"] ;
194 -> 196 ;
197 [label=<gini = 0.0<br/>samples = 1<br/>value = [1, 0]<br/>class = No Salta>, fillcolor="#e58139"] ;
196 -> 197 ;
198 [label=<Salto &le; 150.0<br/>gini = 0.499<br/>samples = 25<br/>value = [12, 13]<br/>class = Salta>, fillcolor="#f0f7fd"] ;
196 -> 198 ;
199 [label=<gini = 0.0<br/>samples = 1<br/>value = [0, 1]<br/>class = Salta>, fillcolor="#399de5"] ;
198 -> 199 ;
200 [label=<Salto &le; 156.0<br/>gini = 0.5<br/>samples = 24<br/>value = [12, 12]<br/>class = No Salta>, fillcolor="#ffffff"] ;
198 -> 200 ;
201 [label=<gini = 0.0<br/>samples = 1<br/>value = [1, 0]<br/>class = No Salta>, fillcolor="#e58139"] ;
200 -> 201 ;
202 [label=<Salto &le; 162.0<br/>gini = 0.499<br/>samples = 23<br/>value = [11, 12]<br/>class = Salta>, fillcolor="#eff7fd"] ;
200 -> 202 ;
203 [label=<gini = 0.0<br/>samples = 1<br/>value = [0, 1]<br/>class = Salta>, fillcolor="#399de5"] ;
202 -> 203 ;
204 [label=<Salto &le; 168.0<br/>gini = 0.5<br/>samples = 22<br/>value = [11, 11]<br/>class = No Salta>, fillcolor="#ffffff"] ;
202 -> 204 ;
205 [label=<gini = 0.0<br/>samples = 1<br/>value = [1, 0]<br/>class = No Salta>, fillcolor="#e58139"] ;
204 -> 205 ;
206 [label=<Salto &le; 174.0<br/>gini = 0.499<br/>samples = 21<br/>value = [10, 11]<br/>class = Salta>, fillcolor="#edf6fd"] ;
204 -> 206 ;
207 [label=<gini = 0.0<br/>samples = 1<br/>value = [0, 1]<br/>class = Salta>, fillcolor="#399de5"] ;
206 -> 207 ;
208 [label=<Salto &le; 180.0<br/>gini = 0.5<br/>samples = 20<br/>value = [10, 10]<br/>class = No Salta>, fillcolor="#ffffff"] ;
206 -> 208 ;
209 [label=<gini = 0.0<br/>samples = 1<br/>value = [1, 0]<br/>class = No Salta>, fillcolor="#e58139"] ;
208 -> 209 ;
210 [label=<Salto &le; 186.0<br/>gini = 0.499<br/>samples = 19<br/>value = [9, 10]<br/>class = Salta>, fillcolor="#ebf5fc"] ;
208 -> 210 ;
211 [label=<gini = 0.0<br/>samples = 1<br/>value = [0, 1]<br/>class = Salta>, fillcolor="#399de5"] ;
210 -> 211 ;
212 [label=<Salto &le; 192.0<br/>gini = 0.5<br/>samples = 18<br/>value = [9, 9]<br/>class = No Salta>, fillcolor="#ffffff"] ;
210 -> 212 ;
213 [label=<gini = 0.0<br/>samples = 1<br/>value = [1, 0]<br/>class = No Salta>, fillcolor="#e58139"] ;
212 -> 213 ;
214 [label=<Salto &le; 198.0<br/>gini = 0.498<br/>samples = 17<br/>value = [8, 9]<br/>class = Salta>, fillcolor="#e9f4fc"] ;
212 -> 214 ;
215 [label=<gini = 0.0<br/>samples = 1<br/>value = [0, 1]<br/>class = Salta>, fillcolor="#399de5"] ;
214 -> 215 ;
216 [label=<Salto &le; 204.0<br/>gini = 0.5<br/>samples = 16<br/>value = [8, 8]<br/>class = No Salta>, fillcolor="#ffffff"] ;
214 -> 216 ;
217 [label=<gini = 0.0<br/>samples = 1<br/>value = [1, 0]<br/>class = No Salta>, fillcolor="#e58139"] ;
216 -> 217 ;
218 [label=<Salto &le; 210.0<br/>gini = 0.498<br/>samples = 15<br/>value = [7, 8]<br/>class = Salta>, fillcolor="#e6f3fc"] ;
216 -> 218 ;
219 [label=<gini = 0.0<br/>samples = 1<br/>value = [0, 1]<br/>class = Salta>, fillcolor="#399de5"] ;
218 -> 219 ;
220 [label=<Salto &le; 216.0<br/>gini = 0.5<br/>samples = 14<br/>value = [7, 7]<br/>class = No Salta>, fillcolor="#ffffff"] ;
218 -> 220 ;
221 [label=<gini = 0.0<br/>samples = 1<br/>value = [1, 0]<br/>class = No Salta>, fillcolor="#e58139"] ;
220 -> 221 ;
222 [label=<Salto &le; 222.0<br/>gini = 0.497<br/>samples = 13<br/>value = [6, 7]<br/>class = Salta>, fillcolor="#e3f1fb"] ;
220 -> 222 ;
223 [label=<gini = 0.0<br/>samples = 1<br/>value = [0, 1]<br/>class = Salta>, fillcolor="#399de5"] ;
222 -> 223 ;
224 [label=<Salto &le; 228.0<br/>gini = 0.5<br/>samples = 12<br/>value = [6, 6]<br/>class = No Salta>, fillcolor="#ffffff"] ;
222 -> 224 ;
225 [label=<gini = 0.0<br/>samples = 1<br/>value = [1, 0]<br/>class = No Salta>, fillcolor="#e58139"] ;
224 -> 225 ;
226 [label=<Salto &le; 234.0<br/>gini = 0.496<br/>samples = 11<br/>value = [5, 6]<br/>class = Salta>, fillcolor="#deeffb"] ;
224 -> 226 ;
227 [label=<gini = 0.0<br/>samples = 1<br/>value = [0, 1]<br/>class = Salta>, fillcolor="#399de5"] ;
226 -> 227 ;
228 [label=<Salto &le; 240.0<br/>gini = 0.5<br/>samples = 10<br/>value = [5, 5]<br/>class = No Salta>, fillcolor="#ffffff"] ;
226 -> 228 ;
229 [label=<gini = 0.0<br/>samples = 1<br/>value = [1, 0]<br/>class = No Salta>, fillcolor="#e58139"] ;
228 -> 229 ;
230 [label=<Salto &le; 246.0<br/>gini = 0.494<br/>samples = 9<br/>value = [4, 5]<br/>class = Salta>, fillcolor="#d7ebfa"] ;
228 -> 230 ;
231 [label=<gini = 0.0<br/>samples = 1<br/>value = [0, 1]<br/>class = Salta>, fillcolor="#399de5"] ;
230 -> 231 ;
232 [label=<Salto &le; 252.0<br/>gini = 0.5<br/>samples = 8<br/>value = [4, 4]<br/>class = No Salta>, fillcolor="#ffffff"] ;
230 -> 232 ;
233 [label=<gini = 0.0<br/>samples = 1<br/>value = [1, 0]<br/>class = No Salta>, fillcolor="#e58139"] ;
232 -> 233 ;
234 [label=<Salto &le; 258.0<br/>gini = 0.49<br/>samples = 7<br/>value = [3, 4]<br/>class = Salta>, fillcolor="#cee6f8"] ;
232 -> 234 ;
235 [label=<gini = 0.0<br/>samples = 1<br/>value = [0, 1]<br/>class = Salta>, fillcolor="#399de5"] ;
234 -> 235 ;
236 [label=<Salto &le; 264.0<br/>gini = 0.5<br/>samples = 6<br/>value = [3, 3]<br/>class = No Salta>, fillcolor="#ffffff"] ;
234 -> 236 ;
237 [label=<gini = 0.0<br/>samples = 1<br/>value = [1, 0]<br/>class = No Salta>, fillcolor="#e58139"] ;
236 -> 237 ;
238 [label=<Salto &le; 270.0<br/>gini = 0.48<br/>samples = 5<br/>value = [2, 3]<br/>class = Salta>, fillcolor="#bddef6"] ;
236 -> 238 ;
239 [label=<gini = 0.0<br/>samples = 1<br/>value = [0, 1]<br/>class = Salta>, fillcolor="#399de5"] ;
238 -> 239 ;
240 [label=<Salto &le; 276.0<br/>gini = 0.5<br/>samples = 4<br/>value = [2, 2]<br/>class = No Salta>, fillcolor="#ffffff"] ;
238 -> 240 ;
241 [label=<gini = 0.0<br/>samples = 1<br/>value = [1, 0]<br/>class = No Salta>, fillcolor="#e58139"] ;
240 -> 241 ;
242 [label=<Salto &le; 282.0<br/>gini = 0.444<br/>samples = 3<br/>value = [1, 2]<br/>class = Salta>, fillcolor="#9ccef2"] ;
240 -> 242 ;
243 [label=<gini = 0.0<br/>samples = 1<br/>value = [0, 1]<br/>class = Salta>, fillcolor="#399de5"] ;
242 -> 243 ;
244 [label=<Salto &le; 288.0<br/>gini = 0.5<br/>samples = 2<br/>value = [1, 1]<br/>class = No Salta>, fillcolor="#ffffff"] ;
242 -> 244 ;
245 [label=<gini = 0.0<br/>samples = 1<br/>value = [1, 0]<br/>class = No Salta>, fillcolor="#e58139"] ;
244 -> 245 ;
246 [label=<gini = 0.0<br/>samples = 1<br/>value = [0, 1]<br/>class = Salta>, fillcolor="#399de5"] ;
244 -> 246 ;
247 [label=<Salto &le; 534.0<br/>gini = 0.288<br/>samples = 86<br/>value = [71, 15]<br/>class = No Salta>, fillcolor="#ea9c63"] ;
191 -> 247 ;
248 [label=<gini = 0.0<br/>samples = 41<br/>value = [41, 0]<br/>class = No Salta>, fillcolor="#e58139"] ;
247 -> 248 ;
249 [label=<Salto &le; 540.0<br/>gini = 0.444<br/>samples = 45<br/>value = [30, 15]<br/>class = No Salta>, fillcolor="#f2c09c"] ;
247 -> 249 ;
250 [label=<gini = 0.0<br/>samples = 1<br/>value = [0, 1]<br/>class = Salta>, fillcolor="#399de5"] ;
249 -> 250 ;
251 [label=<Salto &le; 696.0<br/>gini = 0.434<br/>samples = 44<br/>value = [30.0, 14.0]<br/>class = No Salta>, fillcolor="#f1bc95"] ;
249 -> 251 ;
252 [label=<Salto &le; 598.0<br/>gini = 0.461<br/>samples = 36<br/>value = [23, 13]<br/>class = No Salta>, fillcolor="#f4c8a9"] ;
251 -> 252 ;
253 [label=<Salto &le; 564.0<br/>gini = 0.346<br/>samples = 18<br/>value = [14, 4]<br/>class = No Salta>, fillcolor="#eca572"] ;
252 -> 253 ;
254 [label=<Salto &le; 546.0<br/>gini = 0.5<br/>samples = 4<br/>value = [2, 2]<br/>class = No Salta>, fillcolor="#ffffff"] ;
253 -> 254 ;
255 [label=<gini = 0.0<br/>samples = 1<br/>value = [1, 0]<br/>class = No Salta>, fillcolor="#e58139"] ;
254 -> 255 ;
256 [label=<Salto &le; 552.0<br/>gini = 0.444<br/>samples = 3<br/>value = [1, 2]<br/>class = Salta>, fillcolor="#9ccef2"] ;
254 -> 256 ;
257 [label=<gini = 0.0<br/>samples = 1<br/>value = [0, 1]<br/>class = Salta>, fillcolor="#399de5"] ;
256 -> 257 ;
258 [label=<Salto &le; 558.0<br/>gini = 0.5<br/>samples = 2<br/>value = [1, 1]<br/>class = No Salta>, fillcolor="#ffffff"] ;
256 -> 258 ;
259 [label=<gini = 0.0<br/>samples = 1<br/>value = [1, 0]<br/>class = No Salta>, fillcolor="#e58139"] ;
258 -> 259 ;
260 [label=<gini = 0.0<br/>samples = 1<br/>value = [0, 1]<br/>class = Salta>, fillcolor="#399de5"] ;
258 -> 260 ;
261 [label=<Salto &le; 574.5<br/>gini = 0.245<br/>samples = 14<br/>value = [12, 2]<br/>class = No Salta>, fillcolor="#e9965a"] ;
253 -> 261 ;
262 [label=<gini = 0.0<br/>samples = 3<br/>value = [3, 0]<br/>class = No Salta>, fillcolor="#e58139"] ;
261 -> 262 ;
263 [label=<Salto &le; 575.5<br/>gini = 0.298<br/>samples = 11<br/>value = [9, 2]<br/>class = No Salta>, fillcolor="#eb9d65"] ;
261 -> 263 ;
264 [label=<gini = 0.0<br/>samples = 1<br/>value = [0, 1]<br/>class = Salta>, fillcolor="#399de5"] ;
263 -> 264 ;
265 [label=<Salto &le; 586.5<br/>gini = 0.18<br/>samples = 10<br/>value = [9, 1]<br/>class = No Salta>, fillcolor="#e88f4f"] ;
263 -> 265 ;
266 [label=<gini = 0.0<br/>samples = 6<br/>value = [6, 0]<br/>class = No Salta>, fillcolor="#e58139"] ;
265 -> 266 ;
267 [label=<Salto &le; 587.5<br/>gini = 0.375<br/>samples = 4<br/>value = [3, 1]<br/>class = No Salta>, fillcolor="#eeab7b"] ;
265 -> 267 ;
268 [label=<gini = 0.0<br/>samples = 1<br/>value = [0, 1]<br/>class = Salta>, fillcolor="#399de5"] ;
267 -> 268 ;
269 [label=<gini = 0.0<br/>samples = 3<br/>value = [3, 0]<br/>class = No Salta>, fillcolor="#e58139"] ;
267 -> 269 ;
270 [label=<Salto &le; 604.0<br/>gini = 0.5<br/>samples = 18<br/>value = [9, 9]<br/>class = No Salta>, fillcolor="#ffffff"] ;
252 -> 270 ;
271 [label=<gini = 0.0<br/>samples = 1<br/>value = [0, 1]<br/>class = Salta>, fillcolor="#399de5"] ;
270 -> 271 ;
272 [label=<Salto &le; 610.0<br/>gini = 0.498<br/>samples = 17<br/>value = [9, 8]<br/>class = No Salta>, fillcolor="#fcf1e9"] ;
270 -> 272 ;
273 [label=<gini = 0.0<br/>samples = 1<br/>value = [1, 0]<br/>class = No Salta>, fillcolor="#e58139"] ;
272 -> 273 ;
274 [label=<Salto &le; 616.0<br/>gini = 0.5<br/>samples = 16<br/>value = [8, 8]<br/>class = No Salta>, fillcolor="#ffffff"] ;
272 -> 274 ;
275 [label=<gini = 0.0<br/>samples = 1<br/>value = [0, 1]<br/>class = Salta>, fillcolor="#399de5"] ;
274 -> 275 ;
276 [label=<Salto &le; 622.0<br/>gini = 0.498<br/>samples = 15<br/>value = [8, 7]<br/>class = No Salta>, fillcolor="#fcefe6"] ;
274 -> 276 ;
277 [label=<gini = 0.0<br/>samples = 1<br/>value = [1, 0]<br/>class = No Salta>, fillcolor="#e58139"] ;
276 -> 277 ;
278 [label=<Salto &le; 628.0<br/>gini = 0.5<br/>samples = 14<br/>value = [7, 7]<br/>class = No Salta>, fillcolor="#ffffff"] ;
276 -> 278 ;
279 [label=<gini = 0.0<br/>samples = 1<br/>value = [0, 1]<br/>class = Salta>, fillcolor="#399de5"] ;
278 -> 279 ;
280 [label=<Salto &le; 634.0<br/>gini = 0.497<br/>samples = 13<br/>value = [7, 6]<br/>class = No Salta>, fillcolor="#fbede3"] ;
278 -> 280 ;
281 [label=<gini = 0.0<br/>samples = 1<br/>value = [1, 0]<br/>class = No Salta>, fillcolor="#e58139"] ;
280 -> 281 ;
282 [label=<Salto &le; 640.0<br/>gini = 0.5<br/>samples = 12<br/>value = [6, 6]<br/>class = No Salta>, fillcolor="#ffffff"] ;
280 -> 282 ;
283 [label=<gini = 0.0<br/>samples = 1<br/>value = [0, 1]<br/>class = Salta>, fillcolor="#399de5"] ;
282 -> 283 ;
284 [label=<Salto &le; 646.0<br/>gini = 0.496<br/>samples = 11<br/>value = [6, 5]<br/>class = No Salta>, fillcolor="#fbeade"] ;
282 -> 284 ;
285 [label=<gini = 0.0<br/>samples = 1<br/>value = [1, 0]<br/>class = No Salta>, fillcolor="#e58139"] ;
284 -> 285 ;
286 [label=<Salto &le; 652.0<br/>gini = 0.5<br/>samples = 10<br/>value = [5, 5]<br/>class = No Salta>, fillcolor="#ffffff"] ;
284 -> 286 ;
287 [label=<gini = 0.0<br/>samples = 1<br/>value = [0, 1]<br/>class = Salta>, fillcolor="#399de5"] ;
286 -> 287 ;
288 [label=<Salto &le; 658.0<br/>gini = 0.494<br/>samples = 9<br/>value = [5, 4]<br/>class = No Salta>, fillcolor="#fae6d7"] ;
286 -> 288 ;
289 [label=<gini = 0.0<br/>samples = 1<br/>value = [1, 0]<br/>class = No Salta>, fillcolor="#e58139"] ;
288 -> 289 ;
290 [label=<Salto &le; 664.0<br/>gini = 0.5<br/>samples = 8<br/>value = [4, 4]<br/>class = No Salta>, fillcolor="#ffffff"] ;
288 -> 290 ;
291 [label=<gini = 0.0<br/>samples = 1<br/>value = [0, 1]<br/>class = Salta>, fillcolor="#399de5"] ;
290 -> 291 ;
292 [label=<Salto &le; 670.0<br/>gini = 0.49<br/>samples = 7<br/>value = [4, 3]<br/>class = No Salta>, fillcolor="#f8e0ce"] ;
290 -> 292 ;
293 [label=<gini = 0.0<br/>samples = 1<br/>value = [1, 0]<br/>class = No Salta>, fillcolor="#e58139"] ;
292 -> 293 ;
294 [label=<Salto &le; 676.0<br/>gini = 0.5<br/>samples = 6<br/>value = [3, 3]<br/>class = No Salta>, fillcolor="#ffffff"] ;
292 -> 294 ;
295 [label=<gini = 0.0<br/>samples = 1<br/>value = [0, 1]<br/>class = Salta>, fillcolor="#399de5"] ;
294 -> 295 ;
296 [label=<Salto &le; 682.0<br/>gini = 0.48<br/>samples = 5<br/>value = [3, 2]<br/>class = No Salta>, fillcolor="#f6d5bd"] ;
294 -> 296 ;
297 [label=<gini = 0.0<br/>samples = 1<br/>value = [1, 0]<br/>class = No Salta>, fillcolor="#e58139"] ;
296 -> 297 ;
298 [label=<Salto &le; 688.0<br/>gini = 0.5<br/>samples = 4<br/>value = [2, 2]<br/>class = No Salta>, fillcolor="#ffffff"] ;
296 -> 298 ;
299 [label=<gini = 0.0<br/>samples = 1<br/>value = [0, 1]<br/>class = Salta>, fillcolor="#399de5"] ;
298 -> 299 ;
300 [label=<Salto &le; 694.0<br/>gini = 0.444<br/>samples = 3<br/>value = [2, 1]<br/>class = No Salta>, fillcolor="#f2c09c"] ;
298 -> 300 ;
301 [label=<gini = 0.0<br/>samples = 1<br/>value = [1, 0]<br/>class = No Salta>, fillcolor="#e58139"] ;
300 -> 301 ;
302 [label=<gini = 0.5<br/>samples = 2<br/>value = [1, 1]<br/>class = No Salta>, fillcolor="#ffffff"] ;
300 -> 302 ;
303 [label=<Salto &le; 706.0<br/>gini = 0.219<br/>samples = 8<br/>value = [7, 1]<br/>class = No Salta>, fillcolor="#e99355"] ;
251 -> 303 ;
304 [label=<gini = 0.0<br/>samples = 5<br/>value = [5, 0]<br/>class = No Salta>, fillcolor="#e58139"] ;
303 -> 304 ;
305 [label=<Salto &le; 710.5<br/>gini = 0.444<br/>samples = 3<br/>value = [2, 1]<br/>class = No Salta>, fillcolor="#f2c09c"] ;
303 -> 305 ;
306 [label=<gini = 0.5<br/>samples = 2<br/>value = [1, 1]<br/>class = No Salta>, fillcolor="#ffffff"] ;
305 -> 306 ;
307 [label=<gini = 0.0<br/>samples = 1<br/>value = [1, 0]<br/>class = No Salta>, fillcolor="#e58139"] ;
305 -> 307 ;
308 [label=<Salto &le; 941.0<br/>gini = 0.433<br/>samples = 41<br/>value = [13.0, 28.0]<br/>class = Salta>, fillcolor="#95caf1"] ;
190 -> 308 ;
309 [label=<Salto &le; 752.5<br/>gini = 0.236<br/>samples = 22<br/>value = [3, 19]<br/>class = Salta>, fillcolor="#58ace9"] ;
308 -> 309 ;
310 [label=<Salto &le; 722.5<br/>gini = 0.5<br/>samples = 6<br/>value = [3, 3]<br/>class = No Salta>, fillcolor="#ffffff"] ;
309 -> 310 ;
311 [label=<gini = 0.0<br/>samples = 1<br/>value = [0, 1]<br/>class = Salta>, fillcolor="#399de5"] ;
310 -> 311 ;
312 [label=<Salto &le; 728.5<br/>gini = 0.48<br/>samples = 5<br/>value = [3, 2]<br/>class = No Salta>, fillcolor="#f6d5bd"] ;
310 -> 312 ;
313 [label=<gini = 0.0<br/>samples = 1<br/>value = [1, 0]<br/>class = No Salta>, fillcolor="#e58139"] ;
312 -> 313 ;
314 [label=<Salto &le; 734.5<br/>gini = 0.5<br/>samples = 4<br/>value = [2, 2]<br/>class = No Salta>, fillcolor="#ffffff"] ;
312 -> 314 ;
315 [label=<gini = 0.0<br/>samples = 1<br/>value = [0, 1]<br/>class = Salta>, fillcolor="#399de5"] ;
314 -> 315 ;
316 [label=<Salto &le; 740.5<br/>gini = 0.444<br/>samples = 3<br/>value = [2, 1]<br/>class = No Salta>, fillcolor="#f2c09c"] ;
314 -> 316 ;
317 [label=<gini = 0.0<br/>samples = 1<br/>value = [1, 0]<br/>class = No Salta>, fillcolor="#e58139"] ;
316 -> 317 ;
318 [label=<Salto &le; 746.5<br/>gini = 0.5<br/>samples = 2<br/>value = [1, 1]<br/>class = No Salta>, fillcolor="#ffffff"] ;
316 -> 318 ;
319 [label=<gini = 0.0<br/>samples = 1<br/>value = [0, 1]<br/>class = Salta>, fillcolor="#399de5"] ;
318 -> 319 ;
320 [label=<gini = 0.0<br/>samples = 1<br/>value = [1, 0]<br/>class = No Salta>, fillcolor="#e58139"] ;
318 -> 320 ;
321 [label=<gini = 0.0<br/>samples = 16<br/>value = [0, 16]<br/>class = Salta>, fillcolor="#399de5"] ;
309 -> 321 ;
322 [label=<Salto &le; 1058.5<br/>gini = 0.499<br/>samples = 19<br/>value = [10, 9]<br/>class = No Salta>, fillcolor="#fcf2eb"] ;
308 -> 322 ;
323 [label=<gini = 0.0<br/>samples = 10<br/>value = [10, 0]<br/>class = No Salta>, fillcolor="#e58139"] ;
322 -> 323 ;
324 [label=<gini = 0.0<br/>samples = 9<br/>value = [0, 9]<br/>class = Salta>, fillcolor="#399de5"] ;
322 -> 324 ;
325 [label=<Salto &le; 202.5<br/>gini = 0.052<br/>samples = 1449<br/>value = [1410, 39]<br/>class = No Salta>, fillcolor="#e6843e"] ;
181 -> 325 ;
326 [label=<Salto &le; 139.5<br/>gini = 0.316<br/>samples = 137<br/>value = [110, 27]<br/>class = No Salta>, fillcolor="#eba06a"] ;
325 -> 326 ;
327 [label=<Distancia &le; -4.5<br/>gini = 0.5<br/>samples = 12<br/>value = [6, 6]<br/>class = No Salta>, fillcolor="#ffffff"] ;
326 -> 327 ;
328 [label=<Salto &le; 135.5<br/>gini = 0.278<br/>samples = 6<br/>value = [5, 1]<br/>class = No Salta>, fillcolor="#ea9a61"] ;
327 -> 328 ;
329 [label=<gini = 0.0<br/>samples = 4<br/>value = [4, 0]<br/>class = No Salta>, fillcolor="#e58139"] ;
328 -> 329 ;
330 [label=<Salto &le; 137.5<br/>gini = 0.5<br/>samples = 2<br/>value = [1, 1]<br/>class = No Salta>, fillcolor="#ffffff"] ;
328 -> 330 ;
331 [label=<gini = 0.0<br/>samples = 1<br/>value = [0, 1]<br/>class = Salta>, fillcolor="#399de5"] ;
330 -> 331 ;
332 [label=<gini = 0.0<br/>samples = 1<br/>value = [1, 0]<br/>class = No Salta>, fillcolor="#e58139"] ;
330 -> 332 ;
333 [label=<Salto &le; 131.5<br/>gini = 0.278<br/>samples = 6<br/>value = [1, 5]<br/>class = Salta>, fillcolor="#61b1ea"] ;
327 -> 333 ;
334 [label=<gini = 0.0<br/>samples = 1<br/>value = [1, 0]<br/>class = No Salta>, fillcolor="#e58139"] ;
333 -> 334 ;
335 [label=<gini = 0.0<br/>samples = 5<br/>value = [0, 5]<br/>class = Salta>, fillcolor="#399de5"] ;
333 -> 335 ;
336 [label=<Salto &le; 201.0<br/>gini = 0.28<br/>samples = 125<br/>value = [104, 21]<br/>class = No Salta>, fillcolor="#ea9a61"] ;
326 -> 336 ;
337 [label=<Distancia &le; -4.5<br/>gini = 0.271<br/>samples = 124<br/>value = [104, 20]<br/>class = No Salta>, fillcolor="#ea995f"] ;
336 -> 337 ;
338 [label=<Salto &le; 192.0<br/>gini = 0.355<br/>samples = 52<br/>value = [40, 12]<br/>class = No Salta>, fillcolor="#eda774"] ;
337 -> 338 ;
339 [label=<Salto &le; 190.5<br/>gini = 0.375<br/>samples = 44<br/>value = [33, 11]<br/>class = No Salta>, fillcolor="#eeab7b"] ;
338 -> 339 ;
340 [label=<Salto &le; 189.0<br/>gini = 0.357<br/>samples = 43<br/>value = [33, 10]<br/>class = No Salta>, fillcolor="#eda775"] ;
339 -> 340 ;
341 [label=<Salto &le; 180.5<br/>gini = 0.343<br/>samples = 41<br/>value = [32, 9]<br/>class = No Salta>, fillcolor="#eca471"] ;
340 -> 341 ;
342 [label=<Salto &le; 178.0<br/>gini = 0.382<br/>samples = 35<br/>value = [26, 9]<br/>class = No Salta>, fillcolor="#eead7e"] ;
341 -> 342 ;
343 [label=<Salto &le; 172.5<br/>gini = 0.342<br/>samples = 32<br/>value = [25, 7]<br/>class = No Salta>, fillcolor="#eca470"] ;
342 -> 343 ;
344 [label=<Salto &le; 167.0<br/>gini = 0.375<br/>samples = 28<br/>value = [21, 7]<br/>class = No Salta>, fillcolor="#eeab7b"] ;
343 -> 344 ;
345 [label=<Salto &le; 161.5<br/>gini = 0.34<br/>samples = 23<br/>value = [18, 5]<br/>class = No Salta>, fillcolor="#eca470"] ;
344 -> 345 ;
346 [label=<Salto &le; 157.5<br/>gini = 0.388<br/>samples = 19<br/>value = [14, 5]<br/>class = No Salta>, fillcolor="#eeae80"] ;
345 -> 346 ;
347 [label=<Salto &le; 150.5<br/>gini = 0.32<br/>samples = 15<br/>value = [12, 3]<br/>class = No Salta>, fillcolor="#eca06a"] ;
346 -> 347 ;
348 [label=<Salto &le; 146.5<br/>gini = 0.42<br/>samples = 10<br/>value = [7, 3]<br/>class = No Salta>, fillcolor="#f0b78e"] ;
347 -> 348 ;
349 [label=<Salto &le; 142.5<br/>gini = 0.245<br/>samples = 7<br/>value = [6, 1]<br/>class = No Salta>, fillcolor="#e9965a"] ;
348 -> 349 ;
350 [label=<Distancia &le; -5.5<br/>gini = 0.444<br/>samples = 3<br/>value = [2, 1]<br/>class = No Salta>, fillcolor="#f2c09c"] ;
349 -> 350 ;
351 [label=<gini = 0.0<br/>samples = 1<br/>value = [1, 0]<br/>class = No Salta>, fillcolor="#e58139"] ;
350 -> 351 ;
352 [label=<gini = 0.5<br/>samples = 2<br/>value = [1, 1]<br/>class = No Salta>, fillcolor="#ffffff"] ;
350 -> 352 ;
353 [label=<gini = 0.0<br/>samples = 4<br/>value = [4, 0]<br/>class = No Salta>, fillcolor="#e58139"] ;
349 -> 353 ;
354 [label=<Salto &le; 148.5<br/>gini = 0.444<br/>samples = 3<br/>value = [1, 2]<br/>class = Salta>, fillcolor="#9ccef2"] ;
348 -> 354 ;
355 [label=<gini = 0.0<br/>samples = 1<br/>value = [0, 1]<br/>class = Salta>, fillcolor="#399de5"] ;
354 -> 355 ;
356 [label=<gini = 0.5<br/>samples = 2<br/>value = [1, 1]<br/>class = No Salta>, fillcolor="#ffffff"] ;
354 -> 356 ;
357 [label=<gini = 0.0<br/>samples = 5<br/>value = [5, 0]<br/>class = No Salta>, fillcolor="#e58139"] ;
347 -> 357 ;
358 [label=<Distancia &le; -5.5<br/>gini = 0.5<br/>samples = 4<br/>value = [2, 2]<br/>class = No Salta>, fillcolor="#ffffff"] ;
346 -> 358 ;
359 [label=<gini = 0.5<br/>samples = 2<br/>value = [1, 1]<br/>class = No Salta>, fillcolor="#ffffff"] ;
358 -> 359 ;
360 [label=<gini = 0.5<br/>samples = 2<br/>value = [1, 1]<br/>class = No Salta>, fillcolor="#ffffff"] ;
358 -> 360 ;
361 [label=<gini = 0.0<br/>samples = 4<br/>value = [4, 0]<br/>class = No Salta>, fillcolor="#e58139"] ;
345 -> 361 ;
362 [label=<Salto &le; 169.5<br/>gini = 0.48<br/>samples = 5<br/>value = [3, 2]<br/>class = No Salta>, fillcolor="#f6d5bd"] ;
344 -> 362 ;
363 [label=<gini = 0.5<br/>samples = 2<br/>value = [1, 1]<br/>class = No Salta>, fillcolor="#ffffff"] ;
362 -> 363 ;
364 [label=<Distancia &le; -5.5<br/>gini = 0.444<br/>samples = 3<br/>value = [2, 1]<br/>class = No Salta>, fillcolor="#f2c09c"] ;
362 -> 364 ;
365 [label=<gini = 0.0<br/>samples = 1<br/>value = [1, 0]<br/>class = No Salta>, fillcolor="#e58139"] ;
364 -> 365 ;
366 [label=<gini = 0.5<br/>samples = 2<br/>value = [1, 1]<br/>class = No Salta>, fillcolor="#ffffff"] ;
364 -> 366 ;
367 [label=<gini = 0.0<br/>samples = 4<br/>value = [4, 0]<br/>class = No Salta>, fillcolor="#e58139"] ;
343 -> 367 ;
368 [label=<Distancia &le; -5.5<br/>gini = 0.444<br/>samples = 3<br/>value = [1, 2]<br/>class = Salta>, fillcolor="#9ccef2"] ;
342 -> 368 ;
369 [label=<gini = 0.0<br/>samples = 1<br/>value = [0, 1]<br/>class = Salta>, fillcolor="#399de5"] ;
368 -> 369 ;
370 [label=<gini = 0.5<br/>samples = 2<br/>value = [1, 1]<br/>class = No Salta>, fillcolor="#ffffff"] ;
368 -> 370 ;
371 [label=<gini = 0.0<br/>samples = 6<br/>value = [6, 0]<br/>class = No Salta>, fillcolor="#e58139"] ;
341 -> 371 ;
372 [label=<gini = 0.5<br/>samples = 2<br/>value = [1, 1]<br/>class = No Salta>, fillcolor="#ffffff"] ;
340 -> 372 ;
373 [label=<gini = 0.0<br/>samples = 1<br/>value = [0, 1]<br/>class = Salta>, fillcolor="#399de5"] ;
339 -> 373 ;
374 [label=<Salto &le; 199.5<br/>gini = 0.219<br/>samples = 8<br/>value = [7, 1]<br/>class = No Salta>, fillcolor="#e99355"] ;
338 -> 374 ;
375 [label=<gini = 0.0<br/>samples = 5<br/>value = [5, 0]<br/>class = No Salta>, fillcolor="#e58139"] ;
374 -> 375 ;
376 [label=<Distancia &le; -5.5<br/>gini = 0.444<br/>samples = 3<br/>value = [2, 1]<br/>class = No Salta>, fillcolor="#f2c09c"] ;
374 -> 376 ;
377 [label=<gini = 0.0<br/>samples = 1<br/>value = [1, 0]<br/>class = No Salta>, fillcolor="#e58139"] ;
376 -> 377 ;
378 [label=<gini = 0.5<br/>samples = 2<br/>value = [1, 1]<br/>class = No Salta>, fillcolor="#ffffff"] ;
376 -> 378 ;
379 [label=<Salto &le; 179.5<br/>gini = 0.198<br/>samples = 72<br/>value = [64, 8]<br/>class = No Salta>, fillcolor="#e89152"] ;
337 -> 379 ;
380 [label=<Salto &le; 178.5<br/>gini = 0.225<br/>samples = 62<br/>value = [54, 8]<br/>class = No Salta>, fillcolor="#e99456"] ;
379 -> 380 ;
381 [label=<Salto &le; 166.5<br/>gini = 0.203<br/>samples = 61<br/>value = [54, 7]<br/>class = No Salta>, fillcolor="#e89153"] ;
380 -> 381 ;
382 [label=<Salto &le; 165.5<br/>gini = 0.245<br/>samples = 42<br/>value = [36, 6]<br/>class = No Salta>, fillcolor="#e9965a"] ;
381 -> 382 ;
383 [label=<Salto &le; 143.5<br/>gini = 0.219<br/>samples = 40<br/>value = [35, 5]<br/>class = No Salta>, fillcolor="#e99355"] ;
382 -> 383 ;
384 [label=<gini = 0.0<br/>samples = 4<br/>value = [4, 0]<br/>class = No Salta>, fillcolor="#e58139"] ;
383 -> 384 ;
385 [label=<Salto &le; 162.5<br/>gini = 0.239<br/>samples = 36<br/>value = [31, 5]<br/>class = No Salta>, fillcolor="#e99559"] ;
383 -> 385 ;
386 [label=<Salto &le; 161.5<br/>gini = 0.257<br/>samples = 33<br/>value = [28, 5]<br/>class = No Salta>, fillcolor="#ea985c"] ;
385 -> 386 ;
387 [label=<Salto &le; 157.5<br/>gini = 0.231<br/>samples = 30<br/>value = [26, 4]<br/>class = No Salta>, fillcolor="#e99457"] ;
386 -> 387 ;
388 [label=<Salto &le; 156.5<br/>gini = 0.278<br/>samples = 24<br/>value = [20, 4]<br/>class = No Salta>, fillcolor="#ea9a61"] ;
387 -> 388 ;
389 [label=<Salto &le; 148.5<br/>gini = 0.227<br/>samples = 23<br/>value = [20, 3]<br/>class = No Salta>, fillcolor="#e99457"] ;
388 -> 389 ;
390 [label=<Salto &le; 147.5<br/>gini = 0.32<br/>samples = 10<br/>value = [8, 2]<br/>class = No Salta>, fillcolor="#eca06a"] ;
389 -> 390 ;
391 [label=<Salto &le; 144.5<br/>gini = 0.245<br/>samples = 7<br/>value = [6, 1]<br/>class = No Salta>, fillcolor="#e9965a"] ;
390 -> 391 ;
392 [label=<gini = 0.375<br/>samples = 4<br/>value = [3, 1]<br/>class = No Salta>, fillcolor="#eeab7b"] ;
391 -> 392 ;
393 [label=<gini = 0.0<br/>samples = 3<br/>value = [3, 0]<br/>class = No Salta>, fillcolor="#e58139"] ;
391 -> 393 ;
394 [label=<gini = 0.444<br/>samples = 3<br/>value = [2, 1]<br/>class = No Salta>, fillcolor="#f2c09c"] ;
390 -> 394 ;
395 [label=<Salto &le; 152.5<br/>gini = 0.142<br/>samples = 13<br/>value = [12, 1]<br/>class = No Salta>, fillcolor="#e78c49"] ;
389 -> 395 ;
396 [label=<gini = 0.0<br/>samples = 7<br/>value = [7, 0]<br/>class = No Salta>, fillcolor="#e58139"] ;
395 -> 396 ;
397 [label=<Salto &le; 153.5<br/>gini = 0.278<br/>samples = 6<br/>value = [5, 1]<br/>class = No Salta>, fillcolor="#ea9a61"] ;
395 -> 397 ;
398 [label=<gini = 0.444<br/>samples = 3<br/>value = [2, 1]<br/>class = No Salta>, fillcolor="#f2c09c"] ;
397 -> 398 ;
399 [label=<gini = 0.0<br/>samples = 3<br/>value = [3, 0]<br/>class = No Salta>, fillcolor="#e58139"] ;
397 -> 399 ;
400 [label=<gini = 0.0<br/>samples = 1<br/>value = [0, 1]<br/>class = Salta>, fillcolor="#399de5"] ;
388 -> 400 ;
401 [label=<gini = 0.0<br/>samples = 6<br/>value = [6, 0]<br/>class = No Salta>, fillcolor="#e58139"] ;
387 -> 401 ;
402 [label=<gini = 0.444<br/>samples = 3<br/>value = [2, 1]<br/>class = No Salta>, fillcolor="#f2c09c"] ;
386 -> 402 ;
403 [label=<gini = 0.0<br/>samples = 3<br/>value = [3, 0]<br/>class = No Salta>, fillcolor="#e58139"] ;
385 -> 403 ;
404 [label=<gini = 0.5<br/>samples = 2<br/>value = [1, 1]<br/>class = No Salta>, fillcolor="#ffffff"] ;
382 -> 404 ;
405 [label=<Salto &le; 174.5<br/>gini = 0.1<br/>samples = 19<br/>value = [18, 1]<br/>class = No Salta>, fillcolor="#e68844"] ;
381 -> 405 ;
406 [label=<gini = 0.0<br/>samples = 12<br/>value = [12, 0]<br/>class = No Salta>, fillcolor="#e58139"] ;
405 -> 406 ;
407 [label=<Salto &le; 175.5<br/>gini = 0.245<br/>samples = 7<br/>value = [6, 1]<br/>class = No Salta>, fillcolor="#e9965a"] ;
405 -> 407 ;
408 [label=<gini = 0.5<br/>samples = 2<br/>value = [1, 1]<br/>class = No Salta>, fillcolor="#ffffff"] ;
407 -> 408 ;
409 [label=<gini = 0.0<br/>samples = 5<br/>value = [5, 0]<br/>class = No Salta>, fillcolor="#e58139"] ;
407 -> 409 ;
410 [label=<gini = 0.0<br/>samples = 1<br/>value = [0, 1]<br/>class = Salta>, fillcolor="#399de5"] ;
380 -> 410 ;
411 [label=<gini = 0.0<br/>samples = 10<br/>value = [10, 0]<br/>class = No Salta>, fillcolor="#e58139"] ;
379 -> 411 ;
412 [label=<gini = 0.0<br/>samples = 1<br/>value = [0, 1]<br/>class = Salta>, fillcolor="#399de5"] ;
336 -> 412 ;
413 [label=<Salto &le; 988.0<br/>gini = 0.018<br/>samples = 1312<br/>value = [1300, 12]<br/>class = No Salta>, fillcolor="#e5823b"] ;
325 -> 413 ;
414 [label=<Salto &le; 236.5<br/>gini = 0.005<br/>samples = 1243<br/>value = [1240, 3]<br/>class = No Salta>, fillcolor="#e58139"] ;
413 -> 414 ;
415 [label=<Distancia &le; -5.5<br/>gini = 0.103<br/>samples = 55<br/>value = [52, 3]<br/>class = No Salta>, fillcolor="#e68844"] ;
414 -> 415 ;
416 [label=<Salto &le; 212.0<br/>gini = 0.375<br/>samples = 12<br/>value = [9, 3]<br/>class = No Salta>, fillcolor="#eeab7b"] ;
415 -> 416 ;
417 [label=<gini = 0.0<br/>samples = 3<br/>value = [3, 0]<br/>class = No Salta>, fillcolor="#e58139"] ;
416 -> 417 ;
418 [label=<Salto &le; 215.0<br/>gini = 0.444<br/>samples = 9<br/>value = [6, 3]<br/>class = No Salta>, fillcolor="#f2c09c"] ;
416 -> 418 ;
419 [label=<gini = 0.0<br/>samples = 1<br/>value = [0, 1]<br/>class = Salta>, fillcolor="#399de5"] ;
418 -> 419 ;
420 [label=<Salto &le; 223.5<br/>gini = 0.375<br/>samples = 8<br/>value = [6, 2]<br/>class = No Salta>, fillcolor="#eeab7b"] ;
418 -> 420 ;
421 [label=<gini = 0.0<br/>samples = 3<br/>value = [3, 0]<br/>class = No Salta>, fillcolor="#e58139"] ;
420 -> 421 ;
422 [label=<Salto &le; 226.0<br/>gini = 0.48<br/>samples = 5<br/>value = [3, 2]<br/>class = No Salta>, fillcolor="#f6d5bd"] ;
420 -> 422 ;
423 [label=<gini = 0.0<br/>samples = 1<br/>value = [0, 1]<br/>class = Salta>, fillcolor="#399de5"] ;
422 -> 423 ;
424 [label=<Salto &le; 232.0<br/>gini = 0.375<br/>samples = 4<br/>value = [3, 1]<br/>class = No Salta>, fillcolor="#eeab7b"] ;
422 -> 424 ;
425 [label=<gini = 0.0<br/>samples = 2<br/>value = [2, 0]<br/>class = No Salta>, fillcolor="#e58139"] ;
424 -> 425 ;
426 [label=<gini = 0.5<br/>samples = 2<br/>value = [1, 1]<br/>class = No Salta>, fillcolor="#ffffff"] ;
424 -> 426 ;
427 [label=<gini = 0.0<br/>samples = 43<br/>value = [43, 0]<br/>class = No Salta>, fillcolor="#e58139"] ;
415 -> 427 ;
428 [label=<gini = 0.0<br/>samples = 1188<br/>value = [1188, 0]<br/>class = No Salta>, fillcolor="#e58139"] ;
414 -> 428 ;
429 [label=<Salto &le; 1076.5<br/>gini = 0.227<br/>samples = 69<br/>value = [60, 9]<br/>class = No Salta>, fillcolor="#e99457"] ;
413 -> 429 ;
430 [label=<Distancia &le; -5.0<br/>gini = 0.389<br/>samples = 34<br/>value = [25, 9]<br/>class = No Salta>, fillcolor="#eeae80"] ;
429 -> 430 ;
431 [label=<Salto &le; 991.0<br/>gini = 0.153<br/>samples = 12<br/>value = [11, 1]<br/>class = No Salta>, fillcolor="#e78c4b"] ;
430 -> 431 ;
432 [label=<gini = 0.0<br/>samples = 1<br/>value = [0, 1]<br/>class = Salta>, fillcolor="#399de5"] ;
431 -> 432 ;
433 [label=<gini = 0.0<br/>samples = 11<br/>value = [11, 0]<br/>class = No Salta>, fillcolor="#e58139"] ;
431 -> 433 ;
434 [label=<Salto &le; 1011.5<br/>gini = 0.463<br/>samples = 22<br/>value = [14, 8]<br/>class = No Salta>, fillcolor="#f4c9aa"] ;
430 -> 434 ;
435 [label=<gini = 0.0<br/>samples = 5<br/>value = [5, 0]<br/>class = No Salta>, fillcolor="#e58139"] ;
434 -> 435 ;
436 [label=<Salto &le; 1016.0<br/>gini = 0.498<br/>samples = 17<br/>value = [9, 8]<br/>class = No Salta>, fillcolor="#fcf1e9"] ;
434 -> 436 ;
437 [label=<gini = 0.0<br/>samples = 1<br/>value = [0, 1]<br/>class = Salta>, fillcolor="#399de5"] ;
436 -> 437 ;
438 [label=<Salto &le; 1020.5<br/>gini = 0.492<br/>samples = 16<br/>value = [9, 7]<br/>class = No Salta>, fillcolor="#f9e3d3"] ;
436 -> 438 ;
439 [label=<gini = 0.0<br/>samples = 1<br/>value = [1, 0]<br/>class = No Salta>, fillcolor="#e58139"] ;
438 -> 439 ;
440 [label=<Salto &le; 1025.0<br/>gini = 0.498<br/>samples = 15<br/>value = [8, 7]<br/>class = No Salta>, fillcolor="#fcefe6"] ;
438 -> 440 ;
441 [label=<gini = 0.0<br/>samples = 1<br/>value = [0, 1]<br/>class = Salta>, fillcolor="#399de5"] ;
440 -> 441 ;
442 [label=<Salto &le; 1029.5<br/>gini = 0.49<br/>samples = 14<br/>value = [8, 6]<br/>class = No Salta>, fillcolor="#f8e0ce"] ;
440 -> 442 ;
443 [label=<gini = 0.0<br/>samples = 1<br/>value = [1, 0]<br/>class = No Salta>, fillcolor="#e58139"] ;
442 -> 443 ;
444 [label=<Salto &le; 1034.0<br/>gini = 0.497<br/>samples = 13<br/>value = [7, 6]<br/>class = No Salta>, fillcolor="#fbede3"] ;
442 -> 444 ;
445 [label=<gini = 0.0<br/>samples = 1<br/>value = [0, 1]<br/>class = Salta>, fillcolor="#399de5"] ;
444 -> 445 ;
446 [label=<Salto &le; 1038.5<br/>gini = 0.486<br/>samples = 12<br/>value = [7, 5]<br/>class = No Salta>, fillcolor="#f8dbc6"] ;
444 -> 446 ;
447 [label=<gini = 0.0<br/>samples = 1<br/>value = [1, 0]<br/>class = No Salta>, fillcolor="#e58139"] ;
446 -> 447 ;
448 [label=<Salto &le; 1043.0<br/>gini = 0.496<br/>samples = 11<br/>value = [6, 5]<br/>class = No Salta>, fillcolor="#fbeade"] ;
446 -> 448 ;
449 [label=<gini = 0.0<br/>samples = 1<br/>value = [0, 1]<br/>class = Salta>, fillcolor="#399de5"] ;
448 -> 449 ;
450 [label=<Salto &le; 1047.5<br/>gini = 0.48<br/>samples = 10<br/>value = [6, 4]<br/>class = No Salta>, fillcolor="#f6d5bd"] ;
448 -> 450 ;
451 [label=<gini = 0.0<br/>samples = 1<br/>value = [1, 0]<br/>class = No Salta>, fillcolor="#e58139"] ;
450 -> 451 ;
452 [label=<Salto &le; 1052.0<br/>gini = 0.494<br/>samples = 9<br/>value = [5, 4]<br/>class = No Salta>, fillcolor="#fae6d7"] ;
450 -> 452 ;
453 [label=<gini = 0.0<br/>samples = 1<br/>value = [0, 1]<br/>class = Salta>, fillcolor="#399de5"] ;
452 -> 453 ;
454 [label=<Salto &le; 1056.5<br/>gini = 0.469<br/>samples = 8<br/>value = [5, 3]<br/>class = No Salta>, fillcolor="#f5cdb0"] ;
452 -> 454 ;
455 [label=<gini = 0.0<br/>samples = 1<br/>value = [1, 0]<br/>class = No Salta>, fillcolor="#e58139"] ;
454 -> 455 ;
456 [label=<Salto &le; 1061.0<br/>gini = 0.49<br/>samples = 7<br/>value = [4, 3]<br/>class = No Salta>, fillcolor="#f8e0ce"] ;
454 -> 456 ;
457 [label=<gini = 0.0<br/>samples = 1<br/>value = [0, 1]<br/>class = Salta>, fillcolor="#399de5"] ;
456 -> 457 ;
458 [label=<Salto &le; 1065.5<br/>gini = 0.444<br/>samples = 6<br/>value = [4, 2]<br/>class = No Salta>, fillcolor="#f2c09c"] ;
456 -> 458 ;
459 [label=<gini = 0.0<br/>samples = 1<br/>value = [1, 0]<br/>class = No Salta>, fillcolor="#e58139"] ;
458 -> 459 ;
460 [label=<Salto &le; 1070.0<br/>gini = 0.48<br/>samples = 5<br/>value = [3, 2]<br/>class = No Salta>, fillcolor="#f6d5bd"] ;
458 -> 460 ;
461 [label=<gini = 0.0<br/>samples = 1<br/>value = [0, 1]<br/>class = Salta>, fillcolor="#399de5"] ;
460 -> 461 ;
462 [label=<Salto &le; 1075.5<br/>gini = 0.375<br/>samples = 4<br/>value = [3, 1]<br/>class = No Salta>, fillcolor="#eeab7b"] ;
460 -> 462 ;
463 [label=<gini = 0.0<br/>samples = 2<br/>value = [2, 0]<br/>class = No Salta>, fillcolor="#e58139"] ;
462 -> 463 ;
464 [label=<gini = 0.5<br/>samples = 2<br/>value = [1, 1]<br/>class = No Salta>, fillcolor="#ffffff"] ;
462 -> 464 ;
465 [label=<gini = 0.0<br/>samples = 35<br/>value = [35, 0]<br/>class = No Salta>, fillcolor="#e58139"] ;
429 -> 465 ;
466 [label=<Salto &le; 827.5<br/>gini = 0.462<br/>samples = 752<br/>value = [479.0, 273.0]<br/>class = No Salta>, fillcolor="#f4c9aa"] ;
180 -> 466 ;
467 [label=<Salto &le; 395.0<br/>gini = 0.492<br/>samples = 611<br/>value = [344.0, 267.0]<br/>class = No Salta>, fillcolor="#f9e3d3"] ;
466 -> 467 ;
468 [label=<Salto &le; 188.5<br/>gini = 0.378<br/>samples = 277<br/>value = [207, 70]<br/>class = No Salta>, fillcolor="#eeac7c"] ;
467 -> 468 ;
469 [label=<Salto &le; 153.5<br/>gini = 0.498<br/>samples = 68<br/>value = [36, 32]<br/>class = No Salta>, fillcolor="#fcf1e9"] ;
468 -> 469 ;
470 [label=<Salto &le; 134.5<br/>gini = 0.285<br/>samples = 29<br/>value = [24, 5]<br/>class = No Salta>, fillcolor="#ea9b62"] ;
469 -> 470 ;
471 [label=<gini = 0.0<br/>samples = 4<br/>value = [4, 0]<br/>class = No Salta>, fillcolor="#e58139"] ;
470 -> 471 ;
472 [label=<Salto &le; 135.5<br/>gini = 0.32<br/>samples = 25<br/>value = [20, 5]<br/>class = No Salta>, fillcolor="#eca06a"] ;
470 -> 472 ;
473 [label=<gini = 0.0<br/>samples = 1<br/>value = [0, 1]<br/>class = Salta>, fillcolor="#399de5"] ;
472 -> 473 ;
474 [label=<Salto &le; 145.5<br/>gini = 0.278<br/>samples = 24<br/>value = [20, 4]<br/>class = No Salta>, fillcolor="#ea9a61"] ;
472 -> 474 ;
475 [label=<Salto &le; 139.0<br/>gini = 0.153<br/>samples = 12<br/>value = [11, 1]<br/>class = No Salta>, fillcolor="#e78c4b"] ;
474 -> 475 ;
476 [label=<Salto &le; 137.5<br/>gini = 0.375<br/>samples = 4<br/>value = [3, 1]<br/>class = No Salta>, fillcolor="#eeab7b"] ;
475 -> 476 ;
477 [label=<gini = 0.0<br/>samples = 2<br/>value = [2, 0]<br/>class = No Salta>, fillcolor="#e58139"] ;
476 -> 477 ;
478 [label=<gini = 0.5<br/>samples = 2<br/>value = [1, 1]<br/>class = No Salta>, fillcolor="#ffffff"] ;
476 -> 478 ;
479 [label=<gini = 0.0<br/>samples = 8<br/>value = [8, 0]<br/>class = No Salta>, fillcolor="#e58139"] ;
475 -> 479 ;
480 [label=<Salto &le; 147.0<br/>gini = 0.375<br/>samples = 12<br/>value = [9, 3]<br/>class = No Salta>, fillcolor="#eeab7b"] ;
474 -> 480 ;
481 [label=<gini = 0.5<br/>samples = 2<br/>value = [1, 1]<br/>class = No Salta>, fillcolor="#ffffff"] ;
480 -> 481 ;
482 [label=<Salto &le; 149.0<br/>gini = 0.32<br/>samples = 10<br/>value = [8, 2]<br/>class = No Salta>, fillcolor="#eca06a"] ;
480 -> 482 ;
483 [label=<gini = 0.0<br/>samples = 3<br/>value = [3, 0]<br/>class = No Salta>, fillcolor="#e58139"] ;
482 -> 483 ;
484 [label=<Salto &le; 150.5<br/>gini = 0.408<br/>samples = 7<br/>value = [5, 2]<br/>class = No Salta>, fillcolor="#efb388"] ;
482 -> 484 ;
485 [label=<gini = 0.5<br/>samples = 2<br/>value = [1, 1]<br/>class = No Salta>, fillcolor="#ffffff"] ;
484 -> 485 ;
486 [label=<Salto &le; 151.5<br/>gini = 0.32<br/>samples = 5<br/>value = [4, 1]<br/>class = No Salta>, fillcolor="#eca06a"] ;
484 -> 486 ;
487 [label=<gini = 0.0<br/>samples = 2<br/>value = [2, 0]<br/>class = No Salta>, fillcolor="#e58139"] ;
486 -> 487 ;
488 [label=<Salto &le; 152.5<br/>gini = 0.444<br/>samples = 3<br/>value = [2, 1]<br/>class = No Salta>, fillcolor="#f2c09c"] ;
486 -> 488 ;
489 [label=<gini = 0.5<br/>samples = 2<br/>value = [1, 1]<br/>class = No Salta>, fillcolor="#ffffff"] ;
488 -> 489 ;
490 [label=<gini = 0.0<br/>samples = 1<br/>value = [1, 0]<br/>class = No Salta>, fillcolor="#e58139"] ;
488 -> 490 ;
491 [label=<Salto &le; 182.5<br/>gini = 0.426<br/>samples = 39<br/>value = [12, 27]<br/>class = Salta>, fillcolor="#91c9f1"] ;
469 -> 491 ;
492 [label=<Salto &le; 177.5<br/>gini = 0.358<br/>samples = 30<br/>value = [7, 23]<br/>class = Salta>, fillcolor="#75bbed"] ;
491 -> 492 ;
493 [label=<Salto &le; 176.5<br/>gini = 0.403<br/>samples = 25<br/>value = [7.0, 18.0]<br/>class = Salta>, fillcolor="#86c3ef"] ;
492 -> 493 ;
494 [label=<Salto &le; 174.5<br/>gini = 0.375<br/>samples = 24<br/>value = [6, 18]<br/>class = Salta>, fillcolor="#7bbeee"] ;
493 -> 494 ;
495 [label=<Salto &le; 169.5<br/>gini = 0.351<br/>samples = 22<br/>value = [5, 17]<br/>class = Salta>, fillcolor="#73baed"] ;
494 -> 495 ;
496 [label=<Salto &le; 168.5<br/>gini = 0.415<br/>samples = 17<br/>value = [5, 12]<br/>class = Salta>, fillcolor="#8bc6f0"] ;
495 -> 496 ;
497 [label=<Salto &le; 161.5<br/>gini = 0.375<br/>samples = 16<br/>value = [4, 12]<br/>class = Salta>, fillcolor="#7bbeee"] ;
496 -> 497 ;
498 [label=<Salto &le; 158.5<br/>gini = 0.444<br/>samples = 9<br/>value = [3, 6]<br/>class = Salta>, fillcolor="#9ccef2"] ;
497 -> 498 ;
499 [label=<Salto &le; 155.0<br/>gini = 0.278<br/>samples = 6<br/>value = [1, 5]<br/>class = Salta>, fillcolor="#61b1ea"] ;
498 -> 499 ;
500 [label=<gini = 0.444<br/>samples = 3<br/>value = [1, 2]<br/>class = Salta>, fillcolor="#9ccef2"] ;
499 -> 500 ;
501 [label=<gini = 0.0<br/>samples = 3<br/>value = [0, 3]<br/>class = Salta>, fillcolor="#399de5"] ;
499 -> 501 ;
502 [label=<Salto &le; 159.5<br/>gini = 0.444<br/>samples = 3<br/>value = [2, 1]<br/>class = No Salta>, fillcolor="#f2c09c"] ;
498 -> 502 ;
503 [label=<gini = 0.0<br/>samples = 1<br/>value = [1, 0]<br/>class = No Salta>, fillcolor="#e58139"] ;
502 -> 503 ;
504 [label=<Salto &le; 160.5<br/>gini = 0.5<br/>samples = 2<br/>value = [1, 1]<br/>class = No Salta>, fillcolor="#ffffff"] ;
502 -> 504 ;
505 [label=<gini = 0.0<br/>samples = 1<br/>value = [0, 1]<br/>class = Salta>, fillcolor="#399de5"] ;
504 -> 505 ;
506 [label=<gini = 0.0<br/>samples = 1<br/>value = [1, 0]<br/>class = No Salta>, fillcolor="#e58139"] ;
504 -> 506 ;
507 [label=<Salto &le; 166.5<br/>gini = 0.245<br/>samples = 7<br/>value = [1, 6]<br/>class = Salta>, fillcolor="#5aade9"] ;
497 -> 507 ;
508 [label=<gini = 0.0<br/>samples = 5<br/>value = [0, 5]<br/>class = Salta>, fillcolor="#399de5"] ;
507 -> 508 ;
509 [label=<Salto &le; 167.5<br/>gini = 0.5<br/>samples = 2<br/>value = [1, 1]<br/>class = No Salta>, fillcolor="#ffffff"] ;
507 -> 509 ;
510 [label=<gini = 0.0<br/>samples = 1<br/>value = [1, 0]<br/>class = No Salta>, fillcolor="#e58139"] ;
509 -> 510 ;
511 [label=<gini = 0.0<br/>samples = 1<br/>value = [0, 1]<br/>class = Salta>, fillcolor="#399de5"] ;
509 -> 511 ;
512 [label=<gini = 0.0<br/>samples = 1<br/>value = [1, 0]<br/>class = No Salta>, fillcolor="#e58139"] ;
496 -> 512 ;
513 [label=<gini = 0.0<br/>samples = 5<br/>value = [0, 5]<br/>class = Salta>, fillcolor="#399de5"] ;
495 -> 513 ;
514 [label=<Salto &le; 175.5<br/>gini = 0.5<br/>samples = 2<br/>value = [1, 1]<br/>class = No Salta>, fillcolor="#ffffff"] ;
494 -> 514 ;
515 [label=<gini = 0.0<br/>samples = 1<br/>value = [1, 0]<br/>class = No Salta>, fillcolor="#e58139"] ;
514 -> 515 ;
516 [label=<gini = 0.0<br/>samples = 1<br/>value = [0, 1]<br/>class = Salta>, fillcolor="#399de5"] ;
514 -> 516 ;
517 [label=<gini = 0.0<br/>samples = 1<br/>value = [1, 0]<br/>class = No Salta>, fillcolor="#e58139"] ;
493 -> 517 ;
518 [label=<gini = 0.0<br/>samples = 5<br/>value = [0, 5]<br/>class = Salta>, fillcolor="#399de5"] ;
492 -> 518 ;
519 [label=<Salto &le; 183.5<br/>gini = 0.494<br/>samples = 9<br/>value = [5, 4]<br/>class = No Salta>, fillcolor="#fae6d7"] ;
491 -> 519 ;
520 [label=<gini = 0.0<br/>samples = 1<br/>value = [1, 0]<br/>class = No Salta>, fillcolor="#e58139"] ;
519 -> 520 ;
521 [label=<Salto &le; 184.5<br/>gini = 0.5<br/>samples = 8<br/>value = [4, 4]<br/>class = No Salta>, fillcolor="#ffffff"] ;
519 -> 521 ;
522 [label=<gini = 0.0<br/>samples = 1<br/>value = [0, 1]<br/>class = Salta>, fillcolor="#399de5"] ;
521 -> 522 ;
523 [label=<Salto &le; 185.5<br/>gini = 0.49<br/>samples = 7<br/>value = [4, 3]<br/>class = No Salta>, fillcolor="#f8e0ce"] ;
521 -> 523 ;
524 [label=<gini = 0.0<br/>samples = 1<br/>value = [1, 0]<br/>class = No Salta>, fillcolor="#e58139"] ;
523 -> 524 ;
525 [label=<Salto &le; 187.0<br/>gini = 0.5<br/>samples = 6<br/>value = [3, 3]<br/>class = No Salta>, fillcolor="#ffffff"] ;
523 -> 525 ;
526 [label=<gini = 0.5<br/>samples = 4<br/>value = [2, 2]<br/>class = No Salta>, fillcolor="#ffffff"] ;
525 -> 526 ;
527 [label=<gini = 0.5<br/>samples = 2<br/>value = [1, 1]<br/>class = No Salta>, fillcolor="#ffffff"] ;
525 -> 527 ;
528 [label=<Salto &le; 338.0<br/>gini = 0.298<br/>samples = 209<br/>value = [171, 38]<br/>class = No Salta>, fillcolor="#eb9d65"] ;
468 -> 528 ;
529 [label=<Salto &le; 201.5<br/>gini = 0.375<br/>samples = 144<br/>value = [108, 36]<br/>class = No Salta>, fillcolor="#eeab7b"] ;
528 -> 529 ;
530 [label=<Salto &le; 194.5<br/>gini = 0.087<br/>samples = 22<br/>value = [21, 1]<br/>class = No Salta>, fillcolor="#e68742"] ;
529 -> 530 ;
531 [label=<Salto &le; 193.5<br/>gini = 0.198<br/>samples = 9<br/>value = [8, 1]<br/>class = No Salta>, fillcolor="#e89152"] ;
530 -> 531 ;
532 [label=<gini = 0.0<br/>samples = 7<br/>value = [7, 0]<br/>class = No Salta>, fillcolor="#e58139"] ;
531 -> 532 ;
533 [label=<gini = 0.5<br/>samples = 2<br/>value = [1, 1]<br/>class = No Salta>, fillcolor="#ffffff"] ;
531 -> 533 ;
534 [label=<gini = 0.0<br/>samples = 13<br/>value = [13, 0]<br/>class = No Salta>, fillcolor="#e58139"] ;
530 -> 534 ;
535 [label=<Salto &le; 226.5<br/>gini = 0.409<br/>samples = 122<br/>value = [87, 35]<br/>class = No Salta>, fillcolor="#efb489"] ;
529 -> 535 ;
536 [label=<Salto &le; 205.0<br/>gini = 0.47<br/>samples = 53<br/>value = [33, 20]<br/>class = No Salta>, fillcolor="#f5cdb1"] ;
535 -> 536 ;
537 [label=<Salto &le; 203.0<br/>gini = 0.375<br/>samples = 8<br/>value = [6, 2]<br/>class = No Salta>, fillcolor="#eeab7b"] ;
536 -> 537 ;
538 [label=<gini = 0.444<br/>samples = 3<br/>value = [2, 1]<br/>class = No Salta>, fillcolor="#f2c09c"] ;
537 -> 538 ;
539 [label=<gini = 0.32<br/>samples = 5<br/>value = [4, 1]<br/>class = No Salta>, fillcolor="#eca06a"] ;
537 -> 539 ;
540 [label=<Salto &le; 208.5<br/>gini = 0.48<br/>samples = 45<br/>value = [27, 18]<br/>class = No Salta>, fillcolor="#f6d5bd"] ;
536 -> 540 ;
541 [label=<Salto &le; 206.5<br/>gini = 0.5<br/>samples = 6<br/>value = [3, 3]<br/>class = No Salta>, fillcolor="#ffffff"] ;
540 -> 541 ;
542 [label=<gini = 0.5<br/>samples = 2<br/>value = [1, 1]<br/>class = No Salta>, fillcolor="#ffffff"] ;
541 -> 542 ;
543 [label=<Salto &le; 207.5<br/>gini = 0.5<br/>samples = 4<br/>value = [2, 2]<br/>class = No Salta>, fillcolor="#ffffff"] ;
541 -> 543 ;
544 [label=<gini = 0.5<br/>samples = 2<br/>value = [1, 1]<br/>class = No Salta>, fillcolor="#ffffff"] ;
543 -> 544 ;
545 [label=<gini = 0.5<br/>samples = 2<br/>value = [1, 1]<br/>class = No Salta>, fillcolor="#ffffff"] ;
543 -> 545 ;
546 [label=<Salto &le; 209.5<br/>gini = 0.473<br/>samples = 39<br/>value = [24, 15]<br/>class = No Salta>, fillcolor="#f5d0b5"] ;
540 -> 546 ;
547 [label=<gini = 0.0<br/>samples = 1<br/>value = [1, 0]<br/>class = No Salta>, fillcolor="#e58139"] ;
546 -> 547 ;
548 [label=<Salto &le; 216.5<br/>gini = 0.478<br/>samples = 38<br/>value = [23, 15]<br/>class = No Salta>, fillcolor="#f6d3ba"] ;
546 -> 548 ;
549 [label=<Salto &le; 212.5<br/>gini = 0.492<br/>samples = 16<br/>value = [9, 7]<br/>class = No Salta>, fillcolor="#f9e3d3"] ;
548 -> 549 ;
550 [label=<Salto &le; 211.0<br/>gini = 0.469<br/>samples = 8<br/>value = [5, 3]<br/>class = No Salta>, fillcolor="#f5cdb0"] ;
549 -> 550 ;
551 [label=<gini = 0.48<br/>samples = 5<br/>value = [3, 2]<br/>class = No Salta>, fillcolor="#f6d5bd"] ;
550 -> 551 ;
552 [label=<gini = 0.444<br/>samples = 3<br/>value = [2, 1]<br/>class = No Salta>, fillcolor="#f2c09c"] ;
550 -> 552 ;
553 [label=<Salto &le; 213.5<br/>gini = 0.5<br/>samples = 8<br/>value = [4, 4]<br/>class = No Salta>, fillcolor="#ffffff"] ;
549 -> 553 ;
554 [label=<gini = 0.5<br/>samples = 2<br/>value = [1, 1]<br/>class = No Salta>, fillcolor="#ffffff"] ;
553 -> 554 ;
555 [label=<Salto &le; 215.0<br/>gini = 0.5<br/>samples = 6<br/>value = [3, 3]<br/>class = No Salta>, fillcolor="#ffffff"] ;
553 -> 555 ;
556 [label=<gini = 0.5<br/>samples = 2<br/>value = [1, 1]<br/>class = No Salta>, fillcolor="#ffffff"] ;
555 -> 556 ;
557 [label=<gini = 0.5<br/>samples = 4<br/>value = [2, 2]<br/>class = No Salta>, fillcolor="#ffffff"] ;
555 -> 557 ;
558 [label=<Salto &le; 217.5<br/>gini = 0.463<br/>samples = 22<br/>value = [14, 8]<br/>class = No Salta>, fillcolor="#f4c9aa"] ;
548 -> 558 ;
559 [label=<gini = 0.0<br/>samples = 1<br/>value = [1, 0]<br/>class = No Salta>, fillcolor="#e58139"] ;
558 -> 559 ;
560 [label=<Salto &le; 221.5<br/>gini = 0.472<br/>samples = 21<br/>value = [13, 8]<br/>class = No Salta>, fillcolor="#f5cfb3"] ;
558 -> 560 ;
561 [label=<Salto &le; 220.5<br/>gini = 0.444<br/>samples = 9<br/>value = [6, 3]<br/>class = No Salta>, fillcolor="#f2c09c"] ;
560 -> 561 ;
562 [label=<Salto &le; 218.5<br/>gini = 0.469<br/>samples = 8<br/>value = [5, 3]<br/>class = No Salta>, fillcolor="#f5cdb0"] ;
561 -> 562 ;
563 [label=<gini = 0.444<br/>samples = 3<br/>value = [2, 1]<br/>class = No Salta>, fillcolor="#f2c09c"] ;
562 -> 563 ;
564 [label=<Salto &le; 219.5<br/>gini = 0.48<br/>samples = 5<br/>value = [3, 2]<br/>class = No Salta>, fillcolor="#f6d5bd"] ;
562 -> 564 ;
565 [label=<gini = 0.5<br/>samples = 2<br/>value = [1, 1]<br/>class = No Salta>, fillcolor="#ffffff"] ;
564 -> 565 ;
566 [label=<gini = 0.444<br/>samples = 3<br/>value = [2, 1]<br/>class = No Salta>, fillcolor="#f2c09c"] ;
564 -> 566 ;
567 [label=<gini = 0.0<br/>samples = 1<br/>value = [1, 0]<br/>class = No Salta>, fillcolor="#e58139"] ;
561 -> 567 ;
568 [label=<Salto &le; 223.0<br/>gini = 0.486<br/>samples = 12<br/>value = [7, 5]<br/>class = No Salta>, fillcolor="#f8dbc6"] ;
560 -> 568 ;
569 [label=<gini = 0.5<br/>samples = 4<br/>value = [2, 2]<br/>class = No Salta>, fillcolor="#ffffff"] ;
568 -> 569 ;
570 [label=<Salto &le; 225.5<br/>gini = 0.469<br/>samples = 8<br/>value = [5, 3]<br/>class = No Salta>, fillcolor="#f5cdb0"] ;
568 -> 570 ;
571 [label=<Salto &le; 224.5<br/>gini = 0.444<br/>samples = 6<br/>value = [4, 2]<br/>class = No Salta>, fillcolor="#f2c09c"] ;
570 -> 571 ;
572 [label=<gini = 0.444<br/>samples = 3<br/>value = [2, 1]<br/>class = No Salta>, fillcolor="#f2c09c"] ;
571 -> 572 ;
573 [label=<gini = 0.444<br/>samples = 3<br/>value = [2, 1]<br/>class = No Salta>, fillcolor="#f2c09c"] ;
571 -> 573 ;
574 [label=<gini = 0.5<br/>samples = 2<br/>value = [1, 1]<br/>class = No Salta>, fillcolor="#ffffff"] ;
570 -> 574 ;
575 [label=<Salto &le; 254.5<br/>gini = 0.34<br/>samples = 69<br/>value = [54, 15]<br/>class = No Salta>, fillcolor="#eca470"] ;
535 -> 575 ;
576 [label=<Salto &le; 229.0<br/>gini = 0.184<br/>samples = 39<br/>value = [35, 4]<br/>class = No Salta>, fillcolor="#e88f50"] ;
575 -> 576 ;
577 [label=<Salto &le; 227.5<br/>gini = 0.32<br/>samples = 5<br/>value = [4, 1]<br/>class = No Salta>, fillcolor="#eca06a"] ;
576 -> 577 ;
578 [label=<gini = 0.0<br/>samples = 1<br/>value = [1, 0]<br/>class = No Salta>, fillcolor="#e58139"] ;
577 -> 578 ;
579 [label=<gini = 0.375<br/>samples = 4<br/>value = [3, 1]<br/>class = No Salta>, fillcolor="#eeab7b"] ;
577 -> 579 ;
580 [label=<Salto &le; 232.5<br/>gini = 0.161<br/>samples = 34<br/>value = [31, 3]<br/>class = No Salta>, fillcolor="#e88d4c"] ;
576 -> 580 ;
581 [label=<gini = 0.0<br/>samples = 6<br/>value = [6, 0]<br/>class = No Salta>, fillcolor="#e58139"] ;
580 -> 581 ;
582 [label=<Salto &le; 233.5<br/>gini = 0.191<br/>samples = 28<br/>value = [25, 3]<br/>class = No Salta>, fillcolor="#e89051"] ;
580 -> 582 ;
583 [label=<gini = 0.444<br/>samples = 3<br/>value = [2, 1]<br/>class = No Salta>, fillcolor="#f2c09c"] ;
582 -> 583 ;
584 [label=<Salto &le; 240.5<br/>gini = 0.147<br/>samples = 25<br/>value = [23, 2]<br/>class = No Salta>, fillcolor="#e78c4a"] ;
582 -> 584 ;
585 [label=<gini = 0.0<br/>samples = 10<br/>value = [10, 0]<br/>class = No Salta>, fillcolor="#e58139"] ;
584 -> 585 ;
586 [label=<Salto &le; 241.5<br/>gini = 0.231<br/>samples = 15<br/>value = [13, 2]<br/>class = No Salta>, fillcolor="#e99457"] ;
584 -> 586 ;
587 [label=<gini = 0.5<br/>samples = 2<br/>value = [1, 1]<br/>class = No Salta>, fillcolor="#ffffff"] ;
586 -> 587 ;
588 [label=<Salto &le; 248.5<br/>gini = 0.142<br/>samples = 13<br/>value = [12, 1]<br/>class = No Salta>, fillcolor="#e78c49"] ;
586 -> 588 ;
589 [label=<gini = 0.0<br/>samples = 7<br/>value = [7, 0]<br/>class = No Salta>, fillcolor="#e58139"] ;
588 -> 589 ;
590 [label=<Salto &le; 249.5<br/>gini = 0.278<br/>samples = 6<br/>value = [5, 1]<br/>class = No Salta>, fillcolor="#ea9a61"] ;
588 -> 590 ;
591 [label=<gini = 0.444<br/>samples = 3<br/>value = [2, 1]<br/>class = No Salta>, fillcolor="#f2c09c"] ;
590 -> 591 ;
592 [label=<gini = 0.0<br/>samples = 3<br/>value = [3, 0]<br/>class = No Salta>, fillcolor="#e58139"] ;
590 -> 592 ;
593 [label=<Salto &le; 310.5<br/>gini = 0.464<br/>samples = 30<br/>value = [19, 11]<br/>class = No Salta>, fillcolor="#f4caac"] ;
575 -> 593 ;
594 [label=<Salto &le; 306.5<br/>gini = 0.444<br/>samples = 21<br/>value = [14, 7]<br/>class = No Salta>, fillcolor="#f2c09c"] ;
593 -> 594 ;
595 [label=<Salto &le; 258.5<br/>gini = 0.455<br/>samples = 20<br/>value = [13, 7]<br/>class = No Salta>, fillcolor="#f3c5a4"] ;
594 -> 595 ;
596 [label=<gini = 0.5<br/>samples = 2<br/>value = [1, 1]<br/>class = No Salta>, fillcolor="#ffffff"] ;
595 -> 596 ;
597 [label=<Salto &le; 262.5<br/>gini = 0.444<br/>samples = 18<br/>value = [12, 6]<br/>class = No Salta>, fillcolor="#f2c09c"] ;
595 -> 597 ;
598 [label=<gini = 0.0<br/>samples = 1<br/>value = [1, 0]<br/>class = No Salta>, fillcolor="#e58139"] ;
597 -> 598 ;
599 [label=<Salto &le; 266.5<br/>gini = 0.457<br/>samples = 17<br/>value = [11, 6]<br/>class = No Salta>, fillcolor="#f3c6a5"] ;
597 -> 599 ;
600 [label=<gini = 0.5<br/>samples = 2<br/>value = [1, 1]<br/>class = No Salta>, fillcolor="#ffffff"] ;
599 -> 600 ;
601 [label=<Salto &le; 270.5<br/>gini = 0.444<br/>samples = 15<br/>value = [10, 5]<br/>class = No Salta>, fillcolor="#f2c09c"] ;
599 -> 601 ;
602 [label=<gini = 0.0<br/>samples = 1<br/>value = [1, 0]<br/>class = No Salta>, fillcolor="#e58139"] ;
601 -> 602 ;
603 [label=<Salto &le; 274.5<br/>gini = 0.459<br/>samples = 14<br/>value = [9, 5]<br/>class = No Salta>, fillcolor="#f3c7a7"] ;
601 -> 603 ;
604 [label=<gini = 0.5<br/>samples = 2<br/>value = [1, 1]<br/>class = No Salta>, fillcolor="#ffffff"] ;
603 -> 604 ;
605 [label=<Salto &le; 278.5<br/>gini = 0.444<br/>samples = 12<br/>value = [8, 4]<br/>class = No Salta>, fillcolor="#f2c09c"] ;
603 -> 605 ;
606 [label=<gini = 0.0<br/>samples = 1<br/>value = [1, 0]<br/>class = No Salta>, fillcolor="#e58139"] ;
605 -> 606 ;
607 [label=<Salto &le; 282.5<br/>gini = 0.463<br/>samples = 11<br/>value = [7, 4]<br/>class = No Salta>, fillcolor="#f4c9aa"] ;
605 -> 607 ;
608 [label=<gini = 0.5<br/>samples = 2<br/>value = [1, 1]<br/>class = No Salta>, fillcolor="#ffffff"] ;
607 -> 608 ;
609 [label=<Salto &le; 286.5<br/>gini = 0.444<br/>samples = 9<br/>value = [6, 3]<br/>class = No Salta>, fillcolor="#f2c09c"] ;
607 -> 609 ;
610 [label=<gini = 0.0<br/>samples = 1<br/>value = [1, 0]<br/>class = No Salta>, fillcolor="#e58139"] ;
609 -> 610 ;
611 [label=<Salto &le; 290.5<br/>gini = 0.469<br/>samples = 8<br/>value = [5, 3]<br/>class = No Salta>, fillcolor="#f5cdb0"] ;
609 -> 611 ;
612 [label=<gini = 0.5<br/>samples = 2<br/>value = [1, 1]<br/>class = No Salta>, fillcolor="#ffffff"] ;
611 -> 612 ;
613 [label=<Salto &le; 294.5<br/>gini = 0.444<br/>samples = 6<br/>value = [4, 2]<br/>class = No Salta>, fillcolor="#f2c09c"] ;
611 -> 613 ;
614 [label=<gini = 0.0<br/>samples = 1<br/>value = [1, 0]<br/>class = No Salta>, fillcolor="#e58139"] ;
613 -> 614 ;
615 [label=<Salto &le; 298.5<br/>gini = 0.48<br/>samples = 5<br/>value = [3, 2]<br/>class = No Salta>, fillcolor="#f6d5bd"] ;
613 -> 615 ;
616 [label=<gini = 0.5<br/>samples = 2<br/>value = [1, 1]<br/>class = No Salta>, fillcolor="#ffffff"] ;
615 -> 616 ;
617 [label=<Salto &le; 302.5<br/>gini = 0.444<br/>samples = 3<br/>value = [2, 1]<br/>class = No Salta>, fillcolor="#f2c09c"] ;
615 -> 617 ;
618 [label=<gini = 0.0<br/>samples = 1<br/>value = [1, 0]<br/>class = No Salta>, fillcolor="#e58139"] ;
617 -> 618 ;
619 [label=<gini = 0.5<br/>samples = 2<br/>value = [1, 1]<br/>class = No Salta>, fillcolor="#ffffff"] ;
617 -> 619 ;
620 [label=<gini = 0.0<br/>samples = 1<br/>value = [1, 0]<br/>class = No Salta>, fillcolor="#e58139"] ;
594 -> 620 ;
621 [label=<Salto &le; 314.5<br/>gini = 0.494<br/>samples = 9<br/>value = [5, 4]<br/>class = No Salta>, fillcolor="#fae6d7"] ;
593 -> 621 ;
622 [label=<gini = 0.0<br/>samples = 1<br/>value = [0, 1]<br/>class = Salta>, fillcolor="#399de5"] ;
621 -> 622 ;
623 [label=<Salto &le; 318.5<br/>gini = 0.469<br/>samples = 8<br/>value = [5, 3]<br/>class = No Salta>, fillcolor="#f5cdb0"] ;
621 -> 623 ;
624 [label=<gini = 0.0<br/>samples = 1<br/>value = [1, 0]<br/>class = No Salta>, fillcolor="#e58139"] ;
623 -> 624 ;
625 [label=<Salto &le; 322.5<br/>gini = 0.49<br/>samples = 7<br/>value = [4, 3]<br/>class = No Salta>, fillcolor="#f8e0ce"] ;
623 -> 625 ;
626 [label=<gini = 0.0<br/>samples = 1<br/>value = [0, 1]<br/>class = Salta>, fillcolor="#399de5"] ;
625 -> 626 ;
627 [label=<Salto &le; 326.5<br/>gini = 0.444<br/>samples = 6<br/>value = [4, 2]<br/>class = No Salta>, fillcolor="#f2c09c"] ;
625 -> 627 ;
628 [label=<gini = 0.0<br/>samples = 1<br/>value = [1, 0]<br/>class = No Salta>, fillcolor="#e58139"] ;
627 -> 628 ;
629 [label=<Salto &le; 330.5<br/>gini = 0.48<br/>samples = 5<br/>value = [3, 2]<br/>class = No Salta>, fillcolor="#f6d5bd"] ;
627 -> 629 ;
630 [label=<gini = 0.0<br/>samples = 1<br/>value = [0, 1]<br/>class = Salta>, fillcolor="#399de5"] ;
629 -> 630 ;
631 [label=<Salto &le; 336.0<br/>gini = 0.375<br/>samples = 4<br/>value = [3, 1]<br/>class = No Salta>, fillcolor="#eeab7b"] ;
629 -> 631 ;
632 [label=<gini = 0.0<br/>samples = 2<br/>value = [2, 0]<br/>class = No Salta>, fillcolor="#e58139"] ;
631 -> 632 ;
633 [label=<gini = 0.5<br/>samples = 2<br/>value = [1, 1]<br/>class = No Salta>, fillcolor="#ffffff"] ;
631 -> 633 ;
634 [label=<Salto &le; 379.5<br/>gini = 0.06<br/>samples = 65<br/>value = [63, 2]<br/>class = No Salta>, fillcolor="#e6853f"] ;
528 -> 634 ;
635 [label=<gini = 0.0<br/>samples = 48<br/>value = [48, 0]<br/>class = No Salta>, fillcolor="#e58139"] ;
634 -> 635 ;
636 [label=<Salto &le; 380.5<br/>gini = 0.208<br/>samples = 17<br/>value = [15, 2]<br/>class = No Salta>, fillcolor="#e89253"] ;
634 -> 636 ;
637 [label=<gini = 0.444<br/>samples = 3<br/>value = [2, 1]<br/>class = No Salta>, fillcolor="#f2c09c"] ;
636 -> 637 ;
638 [label=<Salto &le; 387.0<br/>gini = 0.133<br/>samples = 14<br/>value = [13, 1]<br/>class = No Salta>, fillcolor="#e78b48"] ;
636 -> 638 ;
639 [label=<gini = 0.0<br/>samples = 7<br/>value = [7, 0]<br/>class = No Salta>, fillcolor="#e58139"] ;
638 -> 639 ;
640 [label=<Salto &le; 389.0<br/>gini = 0.245<br/>samples = 7<br/>value = [6, 1]<br/>class = No Salta>, fillcolor="#e9965a"] ;
638 -> 640 ;
641 [label=<gini = 0.5<br/>samples = 2<br/>value = [1, 1]<br/>class = No Salta>, fillcolor="#ffffff"] ;
640 -> 641 ;
642 [label=<gini = 0.0<br/>samples = 5<br/>value = [5, 0]<br/>class = No Salta>, fillcolor="#e58139"] ;
640 -> 642 ;
643 [label=<Salto &le; 498.5<br/>gini = 0.484<br/>samples = 334<br/>value = [137, 197]<br/>class = Salta>, fillcolor="#c3e1f7"] ;
467 -> 643 ;
644 [label=<Salto &le; 438.0<br/>gini = 0.497<br/>samples = 125<br/>value = [67, 58]<br/>class = No Salta>, fillcolor="#fceee4"] ;
643 -> 644 ;
645 [label=<Salto &le; 411.5<br/>gini = 0.482<br/>samples = 74<br/>value = [30, 44]<br/>class = Salta>, fillcolor="#c0e0f7"] ;
644 -> 645 ;
646 [label=<Salto &le; 400.5<br/>gini = 0.499<br/>samples = 21<br/>value = [11, 10]<br/>class = No Salta>, fillcolor="#fdf4ed"] ;
645 -> 646 ;
647 [label=<Salto &le; 397.0<br/>gini = 0.32<br/>samples = 5<br/>value = [1, 4]<br/>class = Salta>, fillcolor="#6ab6ec"] ;
646 -> 647 ;
648 [label=<gini = 0.0<br/>samples = 2<br/>value = [0, 2]<br/>class = Salta>, fillcolor="#399de5"] ;
647 -> 648 ;
649 [label=<Salto &le; 399.0<br/>gini = 0.444<br/>samples = 3<br/>value = [1, 2]<br/>class = Salta>, fillcolor="#9ccef2"] ;
647 -> 649 ;
650 [label=<gini = 0.5<br/>samples = 2<br/>value = [1, 1]<br/>class = No Salta>, fillcolor="#ffffff"] ;
649 -> 650 ;
651 [label=<gini = 0.0<br/>samples = 1<br/>value = [0, 1]<br/>class = Salta>, fillcolor="#399de5"] ;
649 -> 651 ;
652 [label=<Salto &le; 401.5<br/>gini = 0.469<br/>samples = 16<br/>value = [10, 6]<br/>class = No Salta>, fillcolor="#f5cdb0"] ;
646 -> 652 ;
653 [label=<gini = 0.0<br/>samples = 2<br/>value = [2, 0]<br/>class = No Salta>, fillcolor="#e58139"] ;
652 -> 653 ;
654 [label=<Salto &le; 404.5<br/>gini = 0.49<br/>samples = 14<br/>value = [8, 6]<br/>class = No Salta>, fillcolor="#f8e0ce"] ;
652 -> 654 ;
655 [label=<Salto &le; 403.5<br/>gini = 0.375<br/>samples = 4<br/>value = [1, 3]<br/>class = Salta>, fillcolor="#7bbeee"] ;
654 -> 655 ;
656 [label=<Salto &le; 402.5<br/>gini = 0.5<br/>samples = 2<br/>value = [1, 1]<br/>class = No Salta>, fillcolor="#ffffff"] ;
655 -> 656 ;
657 [label=<gini = 0.0<br/>samples = 1<br/>value = [0, 1]<br/>class = Salta>, fillcolor="#399de5"] ;
656 -> 657 ;
658 [label=<gini = 0.0<br/>samples = 1<br/>value = [1, 0]<br/>class = No Salta>, fillcolor="#e58139"] ;
656 -> 658 ;
659 [label=<gini = 0.0<br/>samples = 2<br/>value = [0, 2]<br/>class = Salta>, fillcolor="#399de5"] ;
655 -> 659 ;
660 [label=<Salto &le; 408.5<br/>gini = 0.42<br/>samples = 10<br/>value = [7, 3]<br/>class = No Salta>, fillcolor="#f0b78e"] ;
654 -> 660 ;
661 [label=<Salto &le; 407.5<br/>gini = 0.48<br/>samples = 5<br/>value = [3, 2]<br/>class = No Salta>, fillcolor="#f6d5bd"] ;
660 -> 661 ;
662 [label=<Salto &le; 405.5<br/>gini = 0.375<br/>samples = 4<br/>value = [3, 1]<br/>class = No Salta>, fillcolor="#eeab7b"] ;
661 -> 662 ;
663 [label=<gini = 0.0<br/>samples = 1<br/>value = [1, 0]<br/>class = No Salta>, fillcolor="#e58139"] ;
662 -> 663 ;
664 [label=<Salto &le; 406.5<br/>gini = 0.444<br/>samples = 3<br/>value = [2, 1]<br/>class = No Salta>, fillcolor="#f2c09c"] ;
662 -> 664 ;
665 [label=<gini = 0.5<br/>samples = 2<br/>value = [1, 1]<br/>class = No Salta>, fillcolor="#ffffff"] ;
664 -> 665 ;
666 [label=<gini = 0.0<br/>samples = 1<br/>value = [1, 0]<br/>class = No Salta>, fillcolor="#e58139"] ;
664 -> 666 ;
667 [label=<gini = 0.0<br/>samples = 1<br/>value = [0, 1]<br/>class = Salta>, fillcolor="#399de5"] ;
661 -> 667 ;
668 [label=<Salto &le; 409.5<br/>gini = 0.32<br/>samples = 5<br/>value = [4, 1]<br/>class = No Salta>, fillcolor="#eca06a"] ;
660 -> 668 ;
669 [label=<gini = 0.0<br/>samples = 3<br/>value = [3, 0]<br/>class = No Salta>, fillcolor="#e58139"] ;
668 -> 669 ;
670 [label=<Salto &le; 410.5<br/>gini = 0.5<br/>samples = 2<br/>value = [1, 1]<br/>class = No Salta>, fillcolor="#ffffff"] ;
668 -> 670 ;
671 [label=<gini = 0.0<br/>samples = 1<br/>value = [0, 1]<br/>class = Salta>, fillcolor="#399de5"] ;
670 -> 671 ;
672 [label=<gini = 0.0<br/>samples = 1<br/>value = [1, 0]<br/>class = No Salta>, fillcolor="#e58139"] ;
670 -> 672 ;
673 [label=<Salto &le; 412.5<br/>gini = 0.46<br/>samples = 53<br/>value = [19, 34]<br/>class = Salta>, fillcolor="#a8d4f4"] ;
645 -> 673 ;
674 [label=<gini = 0.0<br/>samples = 3<br/>value = [0, 3]<br/>class = Salta>, fillcolor="#399de5"] ;
673 -> 674 ;
675 [label=<Salto &le; 417.5<br/>gini = 0.471<br/>samples = 50<br/>value = [19, 31]<br/>class = Salta>, fillcolor="#b2d9f5"] ;
673 -> 675 ;
676 [label=<Salto &le; 416.5<br/>gini = 0.5<br/>samples = 14<br/>value = [7, 7]<br/>class = No Salta>, fillcolor="#ffffff"] ;
675 -> 676 ;
677 [label=<Salto &le; 415.5<br/>gini = 0.48<br/>samples = 10<br/>value = [4, 6]<br/>class = Salta>, fillcolor="#bddef6"] ;
676 -> 677 ;
678 [label=<Salto &le; 414.5<br/>gini = 0.5<br/>samples = 8<br/>value = [4, 4]<br/>class = No Salta>, fillcolor="#ffffff"] ;
677 -> 678 ;
679 [label=<Salto &le; 413.5<br/>gini = 0.48<br/>samples = 5<br/>value = [2, 3]<br/>class = Salta>, fillcolor="#bddef6"] ;
678 -> 679 ;
680 [label=<gini = 0.5<br/>samples = 2<br/>value = [1, 1]<br/>class = No Salta>, fillcolor="#ffffff"] ;
679 -> 680 ;
681 [label=<gini = 0.444<br/>samples = 3<br/>value = [1, 2]<br/>class = Salta>, fillcolor="#9ccef2"] ;
679 -> 681 ;
682 [label=<gini = 0.444<br/>samples = 3<br/>value = [2, 1]<br/>class = No Salta>, fillcolor="#f2c09c"] ;
678 -> 682 ;
683 [label=<gini = 0.0<br/>samples = 2<br/>value = [0, 2]<br/>class = Salta>, fillcolor="#399de5"] ;
677 -> 683 ;
684 [label=<gini = 0.375<br/>samples = 4<br/>value = [3, 1]<br/>class = No Salta>, fillcolor="#eeab7b"] ;
676 -> 684 ;
685 [label=<Salto &le; 418.5<br/>gini = 0.444<br/>samples = 36<br/>value = [12, 24]<br/>class = Salta>, fillcolor="#9ccef2"] ;
675 -> 685 ;
686 [label=<gini = 0.0<br/>samples = 3<br/>value = [0, 3]<br/>class = Salta>, fillcolor="#399de5"] ;
685 -> 686 ;
687 [label=<Salto &le; 419.5<br/>gini = 0.463<br/>samples = 33<br/>value = [12, 21]<br/>class = Salta>, fillcolor="#aad5f4"] ;
685 -> 687 ;
688 [label=<gini = 0.0<br/>samples = 1<br/>value = [1, 0]<br/>class = No Salta>, fillcolor="#e58139"] ;
687 -> 688 ;
689 [label=<Salto &le; 420.5<br/>gini = 0.451<br/>samples = 32<br/>value = [11, 21]<br/>class = Salta>, fillcolor="#a1d0f3"] ;
687 -> 689 ;
690 [label=<gini = 0.0<br/>samples = 3<br/>value = [0, 3]<br/>class = Salta>, fillcolor="#399de5"] ;
689 -> 690 ;
691 [label=<Salto &le; 430.5<br/>gini = 0.471<br/>samples = 29<br/>value = [11, 18]<br/>class = Salta>, fillcolor="#b2d9f5"] ;
689 -> 691 ;
692 [label=<Salto &le; 429.5<br/>gini = 0.444<br/>samples = 18<br/>value = [6, 12]<br/>class = Salta>, fillcolor="#9ccef2"] ;
691 -> 692 ;
693 [label=<Salto &le; 424.5<br/>gini = 0.469<br/>samples = 16<br/>value = [6, 10]<br/>class = Salta>, fillcolor="#b0d8f5"] ;
692 -> 693 ;
694 [label=<Salto &le; 423.5<br/>gini = 0.408<br/>samples = 7<br/>value = [2, 5]<br/>class = Salta>, fillcolor="#88c4ef"] ;
693 -> 694 ;
695 [label=<Salto &le; 422.5<br/>gini = 0.48<br/>samples = 5<br/>value = [2, 3]<br/>class = Salta>, fillcolor="#bddef6"] ;
694 -> 695 ;
696 [label=<Salto &le; 421.5<br/>gini = 0.375<br/>samples = 4<br/>value = [1, 3]<br/>class = Salta>, fillcolor="#7bbeee"] ;
695 -> 696 ;
697 [label=<gini = 0.444<br/>samples = 3<br/>value = [1, 2]<br/>class = Salta>, fillcolor="#9ccef2"] ;
696 -> 697 ;
698 [label=<gini = 0.0<br/>samples = 1<br/>value = [0, 1]<br/>class = Salta>, fillcolor="#399de5"] ;
696 -> 698 ;
699 [label=<gini = 0.0<br/>samples = 1<br/>value = [1, 0]<br/>class = No Salta>, fillcolor="#e58139"] ;
695 -> 699 ;
700 [label=<gini = 0.0<br/>samples = 2<br/>value = [0, 2]<br/>class = Salta>, fillcolor="#399de5"] ;
694 -> 700 ;
701 [label=<Salto &le; 425.5<br/>gini = 0.494<br/>samples = 9<br/>value = [4, 5]<br/>class = Salta>, fillcolor="#d7ebfa"] ;
693 -> 701 ;
702 [label=<gini = 0.0<br/>samples = 2<br/>value = [2, 0]<br/>class = No Salta>, fillcolor="#e58139"] ;
701 -> 702 ;
703 [label=<Salto &le; 428.5<br/>gini = 0.408<br/>samples = 7<br/>value = [2, 5]<br/>class = Salta>, fillcolor="#88c4ef"] ;
701 -> 703 ;
704 [label=<Salto &le; 427.5<br/>gini = 0.32<br/>samples = 5<br/>value = [1, 4]<br/>class = Salta>, fillcolor="#6ab6ec"] ;
703 -> 704 ;
705 [label=<Salto &le; 426.5<br/>gini = 0.444<br/>samples = 3<br/>value = [1, 2]<br/>class = Salta>, fillcolor="#9ccef2"] ;
704 -> 705 ;
706 [label=<gini = 0.0<br/>samples = 1<br/>value = [0, 1]<br/>class = Salta>, fillcolor="#399de5"] ;
705 -> 706 ;
707 [label=<gini = 0.5<br/>samples = 2<br/>value = [1, 1]<br/>class = No Salta>, fillcolor="#ffffff"] ;
705 -> 707 ;
708 [label=<gini = 0.0<br/>samples = 2<br/>value = [0, 2]<br/>class = Salta>, fillcolor="#399de5"] ;
704 -> 708 ;
709 [label=<gini = 0.5<br/>samples = 2<br/>value = [1, 1]<br/>class = No Salta>, fillcolor="#ffffff"] ;
703 -> 709 ;
710 [label=<gini = 0.0<br/>samples = 2<br/>value = [0, 2]<br/>class = Salta>, fillcolor="#399de5"] ;
692 -> 710 ;
711 [label=<Salto &le; 431.5<br/>gini = 0.496<br/>samples = 11<br/>value = [5, 6]<br/>class = Salta>, fillcolor="#deeffb"] ;
691 -> 711 ;
712 [label=<gini = 0.0<br/>samples = 1<br/>value = [1, 0]<br/>class = No Salta>, fillcolor="#e58139"] ;
711 -> 712 ;
713 [label=<Salto &le; 432.5<br/>gini = 0.48<br/>samples = 10<br/>value = [4, 6]<br/>class = Salta>, fillcolor="#bddef6"] ;
711 -> 713 ;
714 [label=<gini = 0.0<br/>samples = 1<br/>value = [0, 1]<br/>class = Salta>, fillcolor="#399de5"] ;
713 -> 714 ;
715 [label=<Salto &le; 435.5<br/>gini = 0.494<br/>samples = 9<br/>value = [4, 5]<br/>class = Salta>, fillcolor="#d7ebfa"] ;
713 -> 715 ;
716 [label=<Salto &le; 434.5<br/>gini = 0.48<br/>samples = 5<br/>value = [3, 2]<br/>class = No Salta>, fillcolor="#f6d5bd"] ;
715 -> 716 ;
717 [label=<Salto &le; 433.5<br/>gini = 0.5<br/>samples = 4<br/>value = [2, 2]<br/>class = No Salta>, fillcolor="#ffffff"] ;
716 -> 717 ;
718 [label=<gini = 0.444<br/>samples = 3<br/>value = [2, 1]<br/>class = No Salta>, fillcolor="#f2c09c"] ;
717 -> 718 ;
719 [label=<gini = 0.0<br/>samples = 1<br/>value = [0, 1]<br/>class = Salta>, fillcolor="#399de5"] ;
717 -> 719 ;
720 [label=<gini = 0.0<br/>samples = 1<br/>value = [1, 0]<br/>class = No Salta>, fillcolor="#e58139"] ;
716 -> 720 ;
721 [label=<Salto &le; 436.5<br/>gini = 0.375<br/>samples = 4<br/>value = [1, 3]<br/>class = Salta>, fillcolor="#7bbeee"] ;
715 -> 721 ;
722 [label=<gini = 0.0<br/>samples = 2<br/>value = [0, 2]<br/>class = Salta>, fillcolor="#399de5"] ;
721 -> 722 ;
723 [label=<gini = 0.5<br/>samples = 2<br/>value = [1, 1]<br/>class = No Salta>, fillcolor="#ffffff"] ;
721 -> 723 ;
724 [label=<Salto &le; 443.5<br/>gini = 0.398<br/>samples = 51<br/>value = [37.0, 14.0]<br/>class = No Salta>, fillcolor="#efb184"] ;
644 -> 724 ;
725 [label=<gini = 0.0<br/>samples = 4<br/>value = [4, 0]<br/>class = No Salta>, fillcolor="#e58139"] ;
724 -> 725 ;
726 [label=<Salto &le; 444.5<br/>gini = 0.418<br/>samples = 47<br/>value = [33, 14]<br/>class = No Salta>, fillcolor="#f0b68d"] ;
724 -> 726 ;
727 [label=<gini = 0.0<br/>samples = 1<br/>value = [0, 1]<br/>class = Salta>, fillcolor="#399de5"] ;
726 -> 727 ;
728 [label=<Salto &le; 494.0<br/>gini = 0.405<br/>samples = 46<br/>value = [33.0, 13.0]<br/>class = No Salta>, fillcolor="#efb387"] ;
726 -> 728 ;
729 [label=<Salto &le; 491.5<br/>gini = 0.416<br/>samples = 44<br/>value = [31, 13]<br/>class = No Salta>, fillcolor="#f0b68c"] ;
728 -> 729 ;
730 [label=<Salto &le; 486.0<br/>gini = 0.393<br/>samples = 41<br/>value = [30, 11]<br/>class = No Salta>, fillcolor="#efaf82"] ;
729 -> 730 ;
731 [label=<Salto &le; 483.5<br/>gini = 0.418<br/>samples = 37<br/>value = [26, 11]<br/>class = No Salta>, fillcolor="#f0b68d"] ;
730 -> 731 ;
732 [label=<Salto &le; 478.0<br/>gini = 0.389<br/>samples = 34<br/>value = [25, 9]<br/>class = No Salta>, fillcolor="#eeae80"] ;
731 -> 732 ;
733 [label=<Salto &le; 475.5<br/>gini = 0.42<br/>samples = 30<br/>value = [21, 9]<br/>class = No Salta>, fillcolor="#f0b78e"] ;
732 -> 733 ;
734 [label=<Salto &le; 470.0<br/>gini = 0.384<br/>samples = 27<br/>value = [20, 7]<br/>class = No Salta>, fillcolor="#eead7e"] ;
733 -> 734 ;
735 [label=<Salto &le; 467.5<br/>gini = 0.423<br/>samples = 23<br/>value = [16, 7]<br/>class = No Salta>, fillcolor="#f0b890"] ;
734 -> 735 ;
736 [label=<Salto &le; 462.0<br/>gini = 0.375<br/>samples = 20<br/>value = [15, 5]<br/>class = No Salta>, fillcolor="#eeab7b"] ;
735 -> 736 ;
737 [label=<Salto &le; 459.5<br/>gini = 0.43<br/>samples = 16<br/>value = [11, 5]<br/>class = No Salta>, fillcolor="#f1ba93"] ;
736 -> 737 ;
738 [label=<Salto &le; 454.0<br/>gini = 0.355<br/>samples = 13<br/>value = [10, 3]<br/>class = No Salta>, fillcolor="#eda774"] ;
737 -> 738 ;
739 [label=<Salto &le; 451.5<br/>gini = 0.444<br/>samples = 9<br/>value = [6, 3]<br/>class = No Salta>, fillcolor="#f2c09c"] ;
738 -> 739 ;
740 [label=<Salto &le; 446.0<br/>gini = 0.278<br/>samples = 6<br/>value = [5, 1]<br/>class = No Salta>, fillcolor="#ea9a61"] ;
739 -> 740 ;
741 [label=<gini = 0.5<br/>samples = 2<br/>value = [1, 1]<br/>class = No Salta>, fillcolor="#ffffff"] ;
740 -> 741 ;
742 [label=<gini = 0.0<br/>samples = 4<br/>value = [4, 0]<br/>class = No Salta>, fillcolor="#e58139"] ;
740 -> 742 ;
743 [label=<Salto &le; 452.5<br/>gini = 0.444<br/>samples = 3<br/>value = [1, 2]<br/>class = Salta>, fillcolor="#9ccef2"] ;
739 -> 743 ;
744 [label=<gini = 0.0<br/>samples = 1<br/>value = [0, 1]<br/>class = Salta>, fillcolor="#399de5"] ;
743 -> 744 ;
745 [label=<gini = 0.5<br/>samples = 2<br/>value = [1, 1]<br/>class = No Salta>, fillcolor="#ffffff"] ;
743 -> 745 ;
746 [label=<gini = 0.0<br/>samples = 4<br/>value = [4, 0]<br/>class = No Salta>, fillcolor="#e58139"] ;
738 -> 746 ;
747 [label=<Salto &le; 460.5<br/>gini = 0.444<br/>samples = 3<br/>value = [1, 2]<br/>class = Salta>, fillcolor="#9ccef2"] ;
737 -> 747 ;
748 [label=<gini = 0.0<br/>samples = 1<br/>value = [0, 1]<br/>class = Salta>, fillcolor="#399de5"] ;
747 -> 748 ;
749 [label=<gini = 0.5<br/>samples = 2<br/>value = [1, 1]<br/>class = No Salta>, fillcolor="#ffffff"] ;
747 -> 749 ;
750 [label=<gini = 0.0<br/>samples = 4<br/>value = [4, 0]<br/>class = No Salta>, fillcolor="#e58139"] ;
736 -> 750 ;
751 [label=<Salto &le; 468.5<br/>gini = 0.444<br/>samples = 3<br/>value = [1, 2]<br/>class = Salta>, fillcolor="#9ccef2"] ;
735 -> 751 ;
752 [label=<gini = 0.0<br/>samples = 1<br/>value = [0, 1]<br/>class = Salta>, fillcolor="#399de5"] ;
751 -> 752 ;
753 [label=<gini = 0.5<br/>samples = 2<br/>value = [1, 1]<br/>class = No Salta>, fillcolor="#ffffff"] ;
751 -> 753 ;
754 [label=<gini = 0.0<br/>samples = 4<br/>value = [4, 0]<br/>class = No Salta>, fillcolor="#e58139"] ;
734 -> 754 ;
755 [label=<Salto &le; 476.5<br/>gini = 0.444<br/>samples = 3<br/>value = [1, 2]<br/>class = Salta>, fillcolor="#9ccef2"] ;
733 -> 755 ;
756 [label=<gini = 0.0<br/>samples = 1<br/>value = [0, 1]<br/>class = Salta>, fillcolor="#399de5"] ;
755 -> 756 ;
757 [label=<gini = 0.5<br/>samples = 2<br/>value = [1, 1]<br/>class = No Salta>, fillcolor="#ffffff"] ;
755 -> 757 ;
758 [label=<gini = 0.0<br/>samples = 4<br/>value = [4, 0]<br/>class = No Salta>, fillcolor="#e58139"] ;
732 -> 758 ;
759 [label=<Salto &le; 484.5<br/>gini = 0.444<br/>samples = 3<br/>value = [1, 2]<br/>class = Salta>, fillcolor="#9ccef2"] ;
731 -> 759 ;
760 [label=<gini = 0.0<br/>samples = 1<br/>value = [0, 1]<br/>class = Salta>, fillcolor="#399de5"] ;
759 -> 760 ;
761 [label=<gini = 0.5<br/>samples = 2<br/>value = [1, 1]<br/>class = No Salta>, fillcolor="#ffffff"] ;
759 -> 761 ;
762 [label=<gini = 0.0<br/>samples = 4<br/>value = [4, 0]<br/>class = No Salta>, fillcolor="#e58139"] ;
730 -> 762 ;
763 [label=<Salto &le; 492.5<br/>gini = 0.444<br/>samples = 3<br/>value = [1, 2]<br/>class = Salta>, fillcolor="#9ccef2"] ;
729 -> 763 ;
764 [label=<gini = 0.0<br/>samples = 1<br/>value = [0, 1]<br/>class = Salta>, fillcolor="#399de5"] ;
763 -> 764 ;
765 [label=<gini = 0.5<br/>samples = 2<br/>value = [1, 1]<br/>class = No Salta>, fillcolor="#ffffff"] ;
763 -> 765 ;
766 [label=<gini = 0.0<br/>samples = 2<br/>value = [2, 0]<br/>class = No Salta>, fillcolor="#e58139"] ;
728 -> 766 ;
767 [label=<Salto &le; 781.5<br/>gini = 0.446<br/>samples = 209<br/>value = [70, 139]<br/>class = Salta>, fillcolor="#9dcef2"] ;
643 -> 767 ;
768 [label=<Salto &le; 731.0<br/>gini = 0.41<br/>samples = 184<br/>value = [53, 131]<br/>class = Salta>, fillcolor="#89c5f0"] ;
767 -> 768 ;
769 [label=<Salto &le; 715.0<br/>gini = 0.459<br/>samples = 129<br/>value = [46, 83]<br/>class = Salta>, fillcolor="#a7d3f3"] ;
768 -> 769 ;
770 [label=<Salto &le; 664.5<br/>gini = 0.43<br/>samples = 115<br/>value = [36, 79]<br/>class = Salta>, fillcolor="#93caf1"] ;
769 -> 770 ;
771 [label=<Salto &le; 651.0<br/>gini = 0.472<br/>samples = 81<br/>value = [31, 50]<br/>class = Salta>, fillcolor="#b4daf5"] ;
770 -> 771 ;
772 [label=<Salto &le; 636.5<br/>gini = 0.419<br/>samples = 67<br/>value = [20, 47]<br/>class = Salta>, fillcolor="#8dc7f0"] ;
771 -> 772 ;
773 [label=<Salto &le; 547.0<br/>gini = 0.452<br/>samples = 55<br/>value = [19, 36]<br/>class = Salta>, fillcolor="#a2d1f3"] ;
772 -> 773 ;
774 [label=<Salto &le; 524.5<br/>gini = 0.342<br/>samples = 32<br/>value = [7, 25]<br/>class = Salta>, fillcolor="#70b8ec"] ;
773 -> 774 ;
775 [label=<Salto &le; 517.5<br/>gini = 0.473<br/>samples = 13<br/>value = [5, 8]<br/>class = Salta>, fillcolor="#b5daf5"] ;
774 -> 775 ;
776 [label=<gini = 0.0<br/>samples = 6<br/>value = [0, 6]<br/>class = Salta>, fillcolor="#399de5"] ;
775 -> 776 ;
777 [label=<Salto &le; 523.0<br/>gini = 0.408<br/>samples = 7<br/>value = [5, 2]<br/>class = No Salta>, fillcolor="#efb388"] ;
775 -> 777 ;
778 [label=<gini = 0.0<br/>samples = 4<br/>value = [4, 0]<br/>class = No Salta>, fillcolor="#e58139"] ;
777 -> 778 ;
779 [label=<gini = 0.444<br/>samples = 3<br/>value = [1, 2]<br/>class = Salta>, fillcolor="#9ccef2"] ;
777 -> 779 ;
